{"Config":{"Inputs":784,"Layout":[50,10],"Activation":1,"Mode":3,"Loss":2,"Bias":true},"Weights":[[[-0.38868312070958205,-0.07667180508892374,-0.13244397957571669,-0.2812139234037627,0.23458764775337515,-0.12377194919352869,-0.253731080459662,0.08381221689125301,-0.34518061094264746,0.053525870062031064,0.404384466283971,0.4220023598414013,0.16603251645743508,0.026858556515555042,0.4183566069627807,-0.37627131974568095,0.07287511513866966,0.21903267699000395,0.4128401645405214,0.37232433256901754,0.21945320557753956,-0.2569128629048511,-0.4859436747015597,0.32553213337727926,-0.07078001906268899,-0.23374592839290875,-0.40757453142563854,-0.24608885224203525,-0.4163475529269587,0.1839814707473122,0.001021220671471701,-0.41080988020755027,0.030181216894625766,-0.1363902895704418,0.3980180519348545,0.2388296542640867,-0.4544499128277475,-0.2413504523411123,0.10486129171547717,-0.10171662343335358,0.1927657364308505,0.1513941963247947,-0.2890645977563234,-0.35911073740712113,-0.14979235186851866,0.32878160215156277,0.21442120176636095,-0.4723027302690931,-0.21277330681916537,-0.2598602038795676,0.04972117001804278,-0.03610981423499132,0.49617839163099486,0.0856659473122412,-0.04427595137151796,0.2699406300790994,0.1968077867860074,0.16410187001105891,0.24082572059482177,0.3525912527482159,0.05951590762262399,0.10756874705090642,-0.06664957136119845,0.22356018900973554,0.10568147851348142,-0.40883808511662273,-0.3081782683509847,-0.27222781321120343,-0.4601872253074186,0.1459929290199813,-0.2959573766648786,0.3667662038309991,-0.2697312722134911,-0.37668860452446484,-0.19589334751041715,0.5357736778370756,0.2412497025955838,0.04881005120110367,0.13311886084385804,0.43112057748437715,0.18885654982751557,0.3357169053171569,-0.346442501297236,-0.11577098938565528,0.14214403864719372,0.3942500316468712,-0.33323061334468296,0.45224160550493697,0.08703819642724632,-0.15747813479841039,0.12603800833329337,0.11912090882567518,0.2252707806280241,0.09331950174201391,-0.693203322558276,0.15506222504541028,-0.6722846229649531,0.19719316797352285,-0.39751170681995096,-0.09295184491095226,-0.5401438778682237,-0.0941597262943036,-0.8256436449727966,0.15607932146999987,-0.21670398704905883,-0.393334940287891,0.3909751559715546,0.4231022715308537,-0.36166332019648834,0.06054313720527452,-0.04250123591015407,-0.12533100557986754,0.34226165474259684,0.1918648395356753,0.15185656153262034,-0.24598170487767607,-0.2770106574911565,0.29614714265068487,0.13021222230394716,0.22640530685175794,-0.41190616763413335,0.03442934649118784,0.15596291875128548,0.04444209919695695,0.8528850689292199,-0.2502100284818967,-0.8495754436630916,-1.1004607038865244,-0.7619267246331457,-0.23449030142937313,-0.8127588898058367,-0.6166124893500492,-0.2230455241713068,0.31932198611197243,-0.301106184566376,-0.21547369372022113,-0.5351681813064298,0.07821029542294737,-0.35689013639845085,0.14317105077627576,0.1970724883351268,-0.10755610504083148,0.171595162687817,0.0908745161464441,0.4825903509378758,-0.03498448044264814,0.3361346579552043,0.23854697802054897,-0.08743856971770325,-0.7411065886635678,-0.705568562777993,0.11988034602453856,1.5068975747644984,0.7143258155813756,0.22897674783692584,0.30293721007523067,-0.6400358745687575,-0.3588071056797951,0.23136441953556097,0.8529462165482786,1.2611829161621708,0.3471178890355786,-0.42408612432769466,-0.08367361126854747,-0.537056995827704,-0.9390149062105124,-0.3312513964424052,0.24316065600451633,-0.26690996111899984,0.41585219137951157,0.4845155919296156,-0.21348230226219955,0.3766891756998486,0.08349579014002198,-0.8572746902668973,-0.6319416619080989,0.3017923962453284,0.4489147041473867,-0.3051910668870915,-0.1695839357983092,-0.2161686015880007,-0.394147896324035,-0.03807635201517519,0.45312088330049277,-0.8563469386755148,-0.7008094530123531,0.9581254216724912,1.353428654019582,0.15968930586464086,0.7458259648770721,0.21109685275337514,-0.5099226451795033,-0.40900719769042965,0.31308472124545694,-1.3517741496956734,-0.34504675051455463,0.18799148441287128,0.14586631699706057,-0.22431728874118062,-0.01277273392263166,-0.2733431516907913,-0.11081516384590841,-0.43479704203483943,-0.5898916260384175,0.026306731813571637,0.19533572396342222,-0.6578636475022068,-0.08845216226820508,0.10533652718467622,0.5787637514024353,-1.1925795339300524,-0.38218437797241966,0.193042461481253,-0.6474634135333678,-0.05344329288683184,-0.0949055222884542,0.42432537976137236,1.1194859899016998,0.22820458186663237,-0.773434184759117,0.17348828309263847,0.3630129671979612,-0.3636888885891851,-0.06047944795886492,-0.005876177187218112,0.16285004430176211,0.3913252407650287,0.299099636363964,0.19947533549307372,-0.05761203610567647,-0.1209008900222139,-0.5702039954936585,0.05907358224765397,0.44565742675016073,0.5001316995149179,-0.2933322744283429,0.4766762887697336,-0.18770539194744368,0.3455284978920072,-0.3626664211540982,0.15051115073544047,0.21760420685091783,0.8355418871905628,0.16169944737250502,2.470670227913039,0.9131753429484631,0.2004620319267347,0.4893522822199184,0.009557252581498052,-0.3081689575285138,-0.30463692592663755,-0.2552430909519503,0.06504687864145564,-0.14019232430018996,0.46792854229966124,0.29238895465096604,0.5515595668140983,0.09997622164185556,0.8411816479116171,-0.2774905593851577,-0.16046362164527408,0.8925487848923971,0.08141018664328165,0.27594218927647335,0.17344758357389636,0.5182896368921692,-1.4988822440625835,0.13913470638358846,0.1891436192652586,-0.3114963565093081,-0.13470474763593598,0.45592067149881943,0.4708779907949521,0.3065370970083919,-0.12441812145936328,-0.020653978251680423,0.05674749039850647,-0.11746995802419728,0.08201770396201412,0.01013006456449316,0.3948270772706516,-0.07767017405767228,0.390003426872307,0.39377516757656555,0.3585168097383441,-0.06656152000514473,-0.26902959308915647,0.44370701795986517,-0.5355529229041215,-0.3303041670810881,-0.415913745022317,0.445236074380192,0.025711942024483632,-1.0464616049969324,-0.6931249826457924,-0.3206892013730944,-0.5662312607299509,-0.6821801581520127,-0.341468680188817,-0.014553661904002032,1.7010699398888114,1.5190234122433264,-0.6204071785583879,0.37788390338976396,0.42585005584818525,0.2343820001373773,0.8607103740809161,-0.5170780720100461,0.004510951426108023,-0.3495174596656521,0.31669118861099343,0.5498088023959734,-0.6000203124868709,0.713192180736456,-0.5008993566196842,-0.16626779883343817,0.5674653195281852,-0.01020951034794457,-0.19431494293509977,0.7642617171134869,-0.32400797794389286,0.2925889677025251,-0.0666115595933086,-1.021374891660184,-0.13406405895283818,-0.5167890043478066,-0.5250152850102273,-1.1246174024296074,1.9480593406361344,1.2741370397020184,0.3621458356789353,-0.3879449554278378,0.625934998443244,-0.15969263221854488,0.8795202339211322,0.38914741893613336,0.058323641107115846,0.19019732299806721,0.05513768996866444,0.7058920422650576,0.02981930669622517,1.5387119109328988,-0.10120638208665039,1.0164131304607997,-0.025390353038630863,-0.6871251688393966,-0.14580616380718653,-0.14947793908582807,-1.975675080479033,-1.0310042317892207,-0.3169701706244409,-1.0802688803054703,0.7640856588175693,-1.388482475732345,0.0973192396203904,-0.4641212926841642,1.3885116557393193,0.11195457828436783,1.0081126286508044,0.5235931294977124,0.9445290443350095,0.4129316548044954,0.13636904453664098,-0.3364244726590932,-0.4297282766064839,0.06953722434553584,-0.19693996789607174,0.8298343682056045,-0.8079017963717792,-1.048163615085106,-1.4072060301662055,0.8777149195639532,0.42584723496092236,-1.0682269898544179,-0.05556673640028676,-0.08960811327354898,-0.9007425300316513,-0.5775064642400398,-0.5038563833625794,-0.8984582188308288,-0.5855331892289996,-0.28302914165594995,-0.818099924363401,-0.9643924386271155,1.1299653504628147,1.6676428496104936,0.5621528704764971,0.18836775302316974,-0.024857339440123437,0.30980171466561307,0.15712310790206147,0.1771124150209753,0.37976055830010425,0.18484465769247987,0.2771929278410016,0.6846979267635496,0.6000125093871633,0.8267732472827196,0.5005625288853603,0.12853765951118143,0.17966663367741828,-0.3764836571827144,0.3748159029313783,-1.572003008147958,-0.23040673461864256,0.23054458983604778,0.14950903687969563,0.10952781429563482,-0.6141122383218434,-0.29006056263585256,-1.6151614099449194,-0.32749209923435635,0.6882288268190718,1.272781448864202,0.8095211969533159,0.3333307493710507,0.13325155034297198,-0.03133019004977724,0.025462782576038276,-0.034825900795802105,-0.15404711796325593,0.44552251406565296,-0.054841435791862646,0.4374209055732216,0.03294296026579226,-0.36134819003780455,0.20622750357606137,0.23478546176671258,0.2697450840535925,0.49072931128562014,0.21909214533221943,-1.575200591052434,-0.5249446462238232,0.16715587552621414,-0.06743879279871623,-0.5392626961734739,-0.2290492840215141,0.16891283402431617,-0.4294916722537086,-0.9938882515983732,1.4581638289364904,2.0131517354296733,0.7681666656369879,-0.20559054692373102,0.15202226123420148,0.10942846179743937,0.9436654865245434,0.5175873534939521,0.10971072364781542,0.10586016673094686,0.19427092752354624,0.6334735332094971,0.7145687286007356,0.43418505600191915,-0.0008228946588205457,-0.013835880793235724,-0.49036705609665626,-0.4693026522081575,0.017058373381782937,-0.3448963005314958,0.05121832788719162,-0.28498707573863025,-0.33671973674971795,-0.1948395562389211,-0.8049016384003792,-0.8974960181414058,-1.0800642193785701,0.026125412493329152,0.4650855994472074,1.4020613182449517,0.5948716431634072,1.5796710658692035,0.8423706957107322,0.9187419817460319,0.7304942346097479,-0.23547210079839487,-0.06307933618625122,-0.2665238812721035,0.38093259979001254,0.973084001930114,0.07230136537566773,1.0807496463321982,-0.19710574650474386,-0.5916411826563264,0.13203782791289134,0.9344559353830427,-0.5185142778208226,-1.5242562947357046,-0.13035119886149824,-0.06275972436286513,-0.6819974524378549,-1.0057693484252752,-0.031296439443239954,-0.09052302216574991,-0.9648412598921703,1.0246631063626743,0.17048407465754528,1.2704147052942094,1.0386511303881887,0.4917112528694952,-0.6961092885007479,1.366594935246493,0.6701382430653282,-0.12111614402314685,-0.07470257495811916,0.37926579558782864,0.7654562219683521,0.07869275979147251,-0.18714408529024826,0.34437268133653454,-0.051957408448311065,0.39806799674838356,0.09770539218581911,0.2748416251699686,1.1307164195247248,0.5589067492918383,-0.426083430665952,-1.1904973068068585,0.1751494726912229,-0.22224398338073093,-0.400399914401277,-0.02597795857706795,0.20013328390796528,0.25734954542193866,1.0356324220482078,0.18964831453871508,0.0838711822293451,1.3717447320649456,0.9200429914964033,0.13386200219196154,-0.032958792720240285,0.061418847587559576,-0.13816946833125715,0.02822753062391054,-0.41302168430031433,1.2350719656805154,-0.504746609413936,0.961656168273772,0.9751384458760882,0.002146426264770313,-0.003911012609396585,-0.29217323328442313,-1.1801143240230116,0.08460508732369551,-0.34428605737719775,0.7332824516804108,-0.11704713140385699,-0.27445894995070874,0.2653478213099316,-0.052453608537070984,0.5277484106649999,-0.07226154805752329,-0.08744365070620946,0.9823198371486775,0.2594044982131395,0.6652884147169521,0.1928419074366393,-0.13286919904354955,-0.1791736995380273,0.3324697981492484,-0.35504953924338023,0.23404076938311166,0.4107856989360874,0.4566424840634477,-0.3049560935170381,0.8310424076632846,0.05748718795317483,-0.07390968844161128,-0.14491353263981335,0.8157332482391711,-0.08054526931950617,0.5403625306146482,0.38765818254397155,0.6756904755127147,0.2351221633768326,0.4583052462248128,0.5371419682707992,0.20912200728859898,0.16109196765399042,0.14563050850017897,0.14808368661706,0.2913163969822982,0.06805177287309584,0.7862494371090799,0.2549834673976347,0.3882382916254569,0.092481541200103,-0.3820877333480136,-0.02490268003656365,-0.30568095361812625,0.16463148791911272,-0.09693459617441431,-0.14987158766398193,0.7476450254967215,-0.7222149661867857,0.6671955740866863,0.6935155693157846,0.8264871149763278,0.12896675147965597,0.21757865839532262,-0.2829026976068067,0.8012846983680035,0.22192297332223263,0.4185915881759164,-0.2675918468115103,0.671809186969472,-0.4234709272271934,-0.32373458729547167,0.0004101955137892389,0.3848662351423384,-0.36949419696525404,0.4585625605323519,0.3206699798579718,0.06639753893199536,0.032336461434846774,-0.10618585695148335,0.4426283488937883,0.2230209162367686,0.26789897480186187,-0.28580960008223927,-0.16913394434452986,0.251745683981723,-0.4877930007613247,0.9811105963582163,-0.4224357801119468,-0.7373062083045046,-0.06358015461360676,-0.17325544431040832,-0.10316641284823419,1.1829186661748672,-0.7796008202069455,-0.5290519082424394,-0.6776984499781766,-0.5713612245264855,0.24469804459882982,0.5576363422510658,0.9513207299948058,0.3188512153769205,-0.006039966290334001,0.46178177538252857,-0.11710477678615043,0.22902134305522692,-0.7001626895557592,0.348213029091675,-0.18398136773744844,-0.04881360107067199,0.001495219115254243,0.7234884268291206,-0.10907271055902805,0.09818922394384406,-0.17338296451891805,0.22720407347028984,0.19436737996077552,0.39535482149175766,0.10358542053438573,0.5734984870268687,1.373710775825936,0.4936179392909417,-0.31561126578377385,-0.4757618330282585,0.2632726837858417,-0.11594652759723217,0.3398840258590695,1.2613126738925313,0.9278635224839988,1.2453413528886916,0.2342407041966899,0.9945249616256843,0.09135515216205041,-0.13470148130043055,0.4308186389037054,-0.0414464978725278,-0.14824558074031147,0.4123616357253692,0.5016572152210745,0.029426986691961643,0.3700937782626746,0.0846019334742989,0.27405092036953965,-0.40641453797604027,0.33930026107179184,-0.0706747576740334,0.49298055035988475,0.9581772284450452,1.1802129894520246,0.16176875525818318,-1.683302114933609,-0.8555706610627103,0.6346388192336039,-0.08089804971586592,-0.5323644837307278,0.4830294330382351,0.14877344485877264,-0.017667297112637797,0.0964709371105343,0.2765069361189725,0.38883503215188764,0.14402753043364158,-0.40014260009917185,0.20666812251313316,0.2598808210294883,-0.42293876007958503,0.20310171064701407,-0.22544289341186022,0.46426498655505616,1.0386504829570151,1.196179522990984,-0.15039310085333618,-0.3597984424198745,0.664960123418207,-0.026709447583795082,0.5645701891212824,-0.2757442492797461,-0.37907019728029673,0.1705926816022093,-0.329837003965324,-0.29566795026238796,-0.33354829706675126,-0.20082549064063365,-0.48821306328834907,-0.4041603483291126,0.222262666281837,0.10289553968481512,-0.5053527660998319,-0.44330207888629963,0.09274675726396611,-0.4804643759141915,-0.27001234154190606,0.27589871755015605,0.12168784243340458,-0.0067862007587092266,0.2882771787305246,-0.023633250073712416,0.17483361593056782,0.06315440442555821,0.8998971635967677,0.6431707680128261,0.7445878087788212,0.5077912732207679,-0.37281812023017513,0.6332956317347395,0.1730540461691117,0.028381501841030745,0.20289533682456096,0.40623401813049376,-0.30531524911206764,-0.1522548001037345,-0.3227205009861236,0.33665266343475053,0.24543072059858337,0.3368909284099147,0.2750491964181774,0.09604571845110992,-0.10451526526281496,-0.11985293988900114,0.48900515512501597,0.31811041124585526,0.47352679721322255,0.16694027573572578,-0.4583520287300183,-0.02452333636957184,-0.26333690291498946,-0.20716042814690694,0.11876877019327539,0.10996497613020463,-0.5258175313288822,-0.23585144306384812,0.1187998347643274,-0.38776359561861234,-0.22942188120512333,0.27619360665664905,-0.3546703952876442,-0.4828022161026451,-0.22258076785003642,-0.0735244464069122,-0.23148304145486312,0.2197258626500794,0.17506060937774476,0.11755525541164406,-0.19590377628779165,0.37910607262035734,-0.1487014469580294,0.35164045015650147,0.10677891088270564,1.2958070521360148],[0.3974361715118724,0.28048366559315385,0.016719843583684058,0.47177106581707584,-0.4019000501752705,-0.24973647012813222,-0.05111081902870934,0.12853780705722637,-0.3329396234861109,-0.08003690172328683,-0.2127632460448422,0.3804599793765116,-0.4108107464980325,0.00699495150257299,-0.12367770447368165,0.40670165996895424,0.1215671283626763,-0.09359473394293527,-0.2687634892660339,0.4497696848248508,-0.2572536838216028,-0.44356538884433716,-0.4921634034280454,-0.1927141779568064,0.1612692089510931,0.4944064430390741,0.24111519263547787,0.012368978012492815,-0.3996653476274081,-0.4473301972490257,0.36279072219880126,-0.152508826024222,0.3220874352532152,0.11133436773763106,0.3002398643272245,-0.11902932759924409,0.037205261224756765,0.2566816793334412,0.44327058370400846,-0.2754781525234907,0.36535496465575895,-0.45955022414485874,0.44034808303124884,0.3470484270115041,0.09946185922119255,-0.10274794726068034,-0.13391413194708857,0.1704944060598915,-0.12145066587502103,-0.26098421252639664,0.05702709255093959,0.1477233467650374,0.08373155343844563,0.37876259154884384,0.3976735731856088,0.40137149033826747,0.08662324133827815,0.30918855303994,0.46747342236116585,0.11203375925754788,0.231995772955515,-0.447984911013828,-0.4423265881155456,0.2943644394617628,-0.26155461453790974,0.05286049585816144,-0.6520109102115461,-0.2297250418634198,-0.770718825777362,-0.12547930976344662,-0.005051578316870202,0.39207970016382593,0.5102335640409006,0.368404856202931,-0.518563100174631,0.21931972768958619,-0.0773112998027074,0.0480591935356995,0.11256788177624055,-0.4709575519609794,0.03536472262773976,-0.33000787214317506,0.36013221584957367,-0.22778819990113697,0.2512103280227179,-0.49902125560982263,0.1459061600938441,0.03098458345768243,-0.23244297674534703,-0.29348267458564253,-0.02181376130594077,0.0973908130646003,-0.6446035757289309,0.16390900631014269,0.0688381450474361,0.003949361892507917,0.055454888231137395,-0.17434363917792942,0.6392264224725461,0.4499743818537668,0.371650185707404,0.5546501294142994,-0.19931072400921726,-0.9563083463798786,-0.12948506471124133,0.5538887053635546,0.5361495528579763,-0.05131113519343378,0.12658267743662557,-0.012002727947351858,-0.21473270513595846,0.4145020674297404,-0.0025079858840224567,0.10251092941039841,-0.33248961359829604,-0.3828644158318048,0.1646483514435999,-0.05184705417141616,-0.31637638359206577,-0.014286607491178795,-0.8222345752614243,-0.4464645149516093,-0.9970938083637341,0.017632106151793454,-0.6646560250037159,-0.17069114872468727,-0.2008077165124954,-0.43589797127167823,0.7322360767197982,0.9754159190555657,1.781930265248943,0.823995808777139,0.6427496668681578,-0.046690711982784946,0.863679977885957,-0.8182810417067415,-0.3353072859956263,-0.11327667508569222,-0.297908453184861,0.00005680580949800744,-0.3040017616686812,0.3187418523295382,-0.24076654980807177,0.4311367834535837,0.23360605285128794,-0.12593556959803834,-0.49710936278725687,-0.8398841135564871,0.046027153176785365,-0.5114466600409185,0.001949939050419647,-1.041385692686099,-1.1060610949865044,-0.7031666221526601,-1.0665092613523244,-1.2737505472858595,0.40492892094344596,0.6519990484884125,1.1571611920206286,-0.6006617050779413,-1.1611162692441124,-1.3392208741246512,1.7585807893418741,-0.7855704184836322,0.013314825590774359,-0.3099092021576795,0.30593920115495643,-0.264505872458509,-0.26586533256057354,0.0005160955550955685,-0.14157229564688864,0.25778868696192664,0.2966316790209789,-0.6474616375136999,-0.136521876722954,-0.8446103770202897,0.07522564667911767,-1.1535497726969495,-1.5258112216762756,-0.059838600698120976,-0.8275510490008304,-0.6831253971481756,-0.3481565814164503,1.014379123728634,0.5729598477784001,0.13425200087004122,0.751671137259559,-0.6629729529783027,-0.1736789922650385,-0.1775324343315282,0.7798676587305724,0.20640571343250447,0.3224305357233668,-0.05965045411246058,-0.4390650518319976,0.03281398453479828,0.43368237512829033,0.40935074466082055,0.47027829326784276,1.166804957256931,1.00862313618319,0.25862947444438883,0.13111411734699746,0.1299067645762441,0.29889335414553225,-0.6248422225266583,-0.6838362201792861,-0.39025594575110406,-0.1419851554444484,-1.0952152967523232,-1.1183802295964218,-0.433978592506899,0.30001812606538236,-1.9700059359304578,0.2201763590412499,0.8253117211796299,1.042901443427049,-0.2409277524545021,-0.4284483226945265,0.2503858984918441,-0.9906999897127845,0.128315488855488,0.18695259265572575,0.4825427445115441,-0.1051418092599799,-0.1767067425584957,0.3338722485729194,1.030789844805618,1.353341340861088,0.6098755827858633,-1.038109222243494,-1.362927746752845,0.3536891957166416,-0.20963293675018876,1.154258270226561,-0.8690036265763421,-0.44026789153374507,-1.0595273302281147,0.6304659365381985,0.5233423774350564,-0.47271508311056903,0.7861828404844562,1.0741038932563665,0.11030767655000306,0.704004492151089,0.8002924817236069,-0.1433567424912711,-0.5278054000884763,-0.2281617030657417,-0.8808794268809529,0.4245248119768502,0.19824518649348893,-0.3607355010670088,0.00032157417809253267,0.4733972947545396,1.6028586051894615,0.6642263168113516,0.1362162429164515,-0.8990275148863798,-0.02783431672683324,-0.23655749636648848,-0.5241605658591729,-0.43054316894396955,-0.11662144105429935,-1.4783090450464735,-1.6103239823445235,0.2494518032242997,0.22761920972873811,0.27532644617820917,-0.08539847061331818,0.07712804875817039,1.0424147966448682,1.2661059791064395,0.6609859173314058,0.13353616434814022,-0.5688999984562866,-0.17918073265349016,-0.6101918949153947,-0.2319007338023326,0.19686074657307673,0.3879545838162437,-0.03806802757977592,1.1307023337122115,0.6704399564864039,0.5224964817942517,0.3383996826465474,-0.7614839806375224,0.21177876064127574,-0.1747581237874004,-0.34441081782820376,-0.5159939151494636,-0.1670165657879455,-1.0156511694979151,-0.2818625367074308,0.41051914346741836,-0.8699245535442505,0.2776409202754763,0.6013791700084821,1.0736640090713236,0.08627524476040091,0.8830733204871772,0.533828737731746,0.20754849385782137,-0.892592035967091,-0.6355595628189212,-0.680374475428414,0.19028350659422497,-0.4401638833949354,-0.17059852979690027,-0.22143902709848268,0.4620390607104948,1.4507290260460972,-0.8913014120675352,-0.6412379915696598,0.27328490990803567,-0.20396962013289624,0.8999147939699617,-0.27934268134688867,-0.05042667177599979,-0.5159871450206568,-1.17811907645981,-1.4487629533462718,0.9242135808837041,0.228715196074954,0.06841608265931408,1.542514311990748,-0.11069794035381905,0.7038626207928284,0.19692123627720215,0.46258641048605564,0.23753442810761546,-0.4686259377138459,-1.0597354327476594,-0.5905194770882372,0.0963941968532914,0.28528785035062787,-0.08178797205943712,-0.23745558918769422,0.9516662133128712,1.2210836760880843,-0.6594853604347761,-0.8589396551230655,0.4242986791023348,-1.0228906620827307,0.39485241058158793,0.6378114103213257,0.8340368955142574,-0.7231940407158387,-1.0887197129449393,0.16731299055703078,-0.5290983363421958,0.24401271750588593,-0.2667205600621955,-0.05332193128066277,0.5099683089572575,-0.06697016720965178,1.0452888213296698,1.2338024961730656,-0.24498779285500635,-0.1524104310608723,-0.8228009536917819,-0.4279036601949329,-0.5563278156247833,-0.040457294932163344,-0.218887738756247,0.05926457926986155,1.0099294161661962,1.5945841372012113,0.02972616060320254,0.4917405177690141,-0.9950135865200205,-0.5377293375110196,-0.1673638125369527,-0.5377105707791713,0.3086350676025569,0.2751959105160167,-0.6517394166668932,0.40016177999120434,-0.014996363310927473,2.1591449619708865,1.476641946549394,-0.4019866989285897,0.5032829105548138,0.19703321435206964,0.9380572193651416,-0.14337711435437658,0.14607966765812747,-0.892457927809367,-2.0154833138211337,-1.1806852209122185,-0.6817902254088002,0.14229626565772582,0.41010290385270726,0.3511586348621588,0.6684593069045821,-0.04040160360663345,0.8439435684029667,-0.20565759612772827,0.04628593724388828,-0.8223091380157099,-0.28796699256948605,-0.19421113711851795,-0.9747733031013687,1.1102812207323867,0.7044071362506774,0.4806682834733997,-0.0784777362199662,1.4735889887496192,1.5818672031816259,-0.23076415390252272,0.9013516807307709,0.5180553629116474,0.3768693890838789,0.4475846605800604,-1.2262538308788944,-1.134990595439099,-1.3345597043935862,-1.238592637089722,-0.41725353554549843,0.3536122691069834,-0.4015777639487594,0.4544453280393478,0.1560570218226023,-0.6072620815455155,-0.46974281770648885,0.34157655492907596,0.3150077976624598,0.4433583288096145,-0.9887926165106011,-0.3200954490034379,-0.631495584390707,-1.009476570980401,-1.730987503219505,-0.9416895955657473,0.22455161984178335,-0.901857648324243,0.07222338442475809,1.0289667683161632,-0.07322912825900106,0.9812014326134754,0.3922220188074589,0.6809689988588874,0.9176891524016194,-0.297180505652689,-0.3031124419169168,-0.6963139289689865,-0.7937501502700457,-0.0604889685496093,-0.4909870482048691,0.49618463046388844,0.6991046809282023,-0.45778588337573584,-1.0439736321837612,-0.06314016698706523,-0.29394770145745086,0.4532959008993628,-1.2867289258007732,-0.8814733536448177,0.8011525222103565,-0.2017771630528069,0.32501463959442767,0.4551240731427489,0.3116196867968075,-0.4036843799024517,0.022699453313587054,-0.8078237158176833,0.7078497519951149,0.7506227802572569,-0.27139749598768753,0.3952763778356845,-0.436462933489486,-0.6874635065631323,-0.1474450825877135,-0.9793233846799774,0.25627596473708175,-0.45701507213279935,0.3393567522426093,0.39633396184563907,1.0942096561975903,-1.1749940294542995,0.28841483540934815,0.9021879758500292,-1.1284858136632459,-1.2012423458538435,-0.7261109945208787,-0.6809078848878172,-0.41725642627169574,-0.8648314359275875,-0.22999229927779108,-0.3921613139526475,-1.000762999787056,-0.7190527475571301,-0.23712292719286793,0.21285127783316662,0.9666574405224654,-0.6120736516733266,-0.7441201742687737,0.5478032733260707,-0.950373561225848,-0.8436865693164989,-0.2824462290205518,-0.7201549700196358,-0.15567114890361844,-0.26688780714707966,-0.01236390342811916,0.199879698604452,0.3398381093608176,-1.3152480775354414,-0.4098363334170783,0.05611505952148768,0.14252295408915644,0.49946786838090806,-1.2021527291618663,-1.4915902664752323,-1.1753432868764948,0.8795304427164654,0.3707223214799546,-0.35396296199021987,0.09172384824688733,-0.6528087889928598,-0.6599553075522658,0.6944942419786723,-0.5754484280611581,-0.4764322460495569,1.5262792219290662,0.4799542938254109,-0.20899569064997148,-0.5926942765210758,-0.4456871668739918,-0.35995295092119306,0.03861410561216019,0.038436731812334625,0.23145230790474136,0.22768221986772127,0.8504130049978972,-0.5294812461874876,0.8646183543287428,0.8835219413497868,-0.9852035463360849,-1.0228125063819133,-0.2091025697472216,-1.0105771778361312,-2.3241146408168127,-0.4647917075833164,-0.9918709701920833,0.10996116956811974,-0.33255990358295234,1.6419834476321005,0.21984136219265307,0.6343545608495056,0.6445296162776806,-0.36353334441644425,-0.1208347851853511,0.6197336408854712,0.37343847768730176,-0.8192091657205521,-0.8822357472386682,-1.4187674113732731,0.39599124613180764,0.11236278464646358,-0.10548198165580974,0.48577588747992684,0.2507130608783492,-1.081084368052582,1.0159609378045642,1.1024876301698288,0.08672796271500788,-1.7338734476437352,-0.7940016734197903,0.28690375409358665,-0.5263293823583781,1.0341936675733265,0.21140211001449347,-1.6055384879376011,-0.3798371582534263,-0.42325476739040724,-0.6693066551681817,0.40957808130163204,0.615832918570163,-0.4262632205082558,0.34359366296956123,1.3240094303794587,1.3214207910522224,0.0739934735885331,-1.9004844804167986,-1.1809041413495525,-0.3928590258547738,0.3825595753488408,0.2401563283860414,0.16827668724768075,0.32680349386062857,0.18127791257684686,-0.22264411542480175,0.7450458230413555,0.15475158571882047,-1.1517725880792378,-1.0646590676643624,-0.8234257834794485,-0.28206789100213053,-0.5764884411046791,0.7404441633711859,0.4910265556766043,0.39931079309891154,0.4131561727487466,0.691518985216035,0.09108067967203583,0.09945163752470011,0.06259991465819463,0.7102498797643606,-0.06593903473661995,0.29740467714031654,-0.1454936922893515,-0.5875115152048728,-0.11818537994064066,0.05645789169109924,-0.23119568131555693,-0.34150935884738565,0.005923124755052968,0.12559198943807495,-0.35570704293029126,0.29115860577536173,0.6234168089008244,-0.18521326488882692,-0.3468297713736366,-1.0154587978125547,-1.3747226821156353,-1.6689511478521537,-0.7368773723563675,2.325933712511929,0.08453866236713421,0.0651677266805548,-0.011121510211754103,0.46949876552247305,-0.6011082000073563,0.184723106516282,0.6700731391662776,0.5823496202286946,-0.11020355650413202,-0.35238543007444745,0.3628397837878205,-0.13690613612351163,-0.29878462009121126,-0.42266703341762685,-0.056288155712801685,0.08464182145612476,-0.2871489557556253,0.5810822954915692,0.48732460381567255,-0.12719631805307968,0.8333539895811639,0.08618673068582676,-0.8805202821903844,-1.7342930014632274,-2.026921677985982,-0.44308833041004564,-0.027792414959192335,-1.1877639091120122,0.6115974791251934,0.4691197424125079,-0.15963286509820795,-0.21291042301828622,0.23610467673183883,1.4392774742859706,1.9087942260926436,1.0330366006246017,0.8710209939957031,0.4670776952786529,-0.45987742231980455,-0.7078116349800301,0.022464891979061142,-0.20868414114826034,-0.4807611711209898,-0.33531346841057996,0.032237203732223274,-0.4487987457327423,-0.3732915065529513,-0.782736932735711,2.0375303595014427,0.09425675437206925,-0.41557781335281946,-1.5126916215879824,-1.5352058894354108,-0.911834563219472,-0.039884934888230604,0.07188304829210942,-0.304847089203858,-0.00390806644582028,-0.14220161090289896,1.1822909977208877,0.6145885162167222,0.9669974951482236,1.292600449742112,1.3941811022095343,1.1302259733834423,0.6025622608831411,-0.4895230069015881,0.004709804582342749,-0.09469000601412125,-0.2743346828991388,0.2811761654966247,-0.14121114535557822,0.4903955383928724,0.4275061568684814,-0.31561541196587106,-0.06288611836997533,0.40168008917602804,0.8958785834808377,-0.009727881296317357,-0.4677266584678038,-0.6505476733977891,-0.2881109074730142,-0.0765277875770593,0.5206980451140943,-0.8593819164035046,0.2578656174564175,0.9606678140295896,1.4340501088557402,0.39513033573496764,1.0085523471947013,0.9675784125365143,-0.09043904880573031,0.5940736863949772,-0.06473886462157326,-0.0927820614694669,-0.13819541281835926,0.5071622745030692,-0.23691393531504948,0.2294881595624576,-0.4027729103032231,-0.38272559743491025,0.44446243609912695,-0.4785715175723188,0.21880530256409222,-0.0679427334169064,-0.17294490808325913,-0.6647894520616355,-0.23455649925699285,-0.6158007502365013,-0.31697744190772426,0.03036707005182348,0.2007547035772507,0.5723075937955185,0.34331542550082905,0.2872749086518189,0.7763670378844011,-0.4867202225514177,-0.15788199348819,0.3882259143390095,-0.15099077073153072,-0.40180455946516297,0.49686348301025507,-0.2044850276719151,-0.0031633201899544036,0.17392757004526668,0.4457521544277766,-0.15811810336225046,0.2157150444393643,0.16617181265023695,-0.3847214914155244,-0.3117049859779397,0.3738321654047212,0.5046387475059348,0.4412272980440358,0.503970493048424,-0.2899405586686989,0.39778824127362866,-0.33341958484057804,0.2535132153014778,0.07651060753299366,-0.187931471498349,-0.01265640040541747,-0.4117202882026144,0.12735229402003292,0.18490205294610393,-0.02745280017817854,0.3550859125157709,-0.0628363152391242,0.10393707345375612,0.3080491318012995,0.004195733356709863,-0.42397500659651666,0.3822431224473205,-0.11718591651148963,-0.4921211249112357,-0.860942278536505],[0.3178325197186346,-0.1427115032411217,0.12474367836526412,0.018408397113453545,0.4478610776076698,0.3324593596597818,0.11539261132481349,-0.4325245038937865,0.1803096878080697,0.22816915112805242,0.23517755806582985,0.027356155003277323,-0.24207334756322485,0.4653669969222964,0.4922990327160573,0.4820375078349157,-0.36670995720735755,0.1358428061652639,0.2843455010784723,0.19658083353045058,0.09860355348280825,-0.3086878437400352,-0.20228654548165823,-0.16967083069535932,0.22496730945264798,-0.2989826056125624,0.2931052689286674,-0.2958940874379336,-0.11943450568631714,0.3468586120314716,-0.1441320094096663,-0.39817288779874566,0.46838193829197494,0.26984357767583245,-0.4536648967365595,-0.2405231969615771,-0.17249154193996813,-0.3072110069592985,0.3823513407598675,-0.17568735898866022,0.49967461546535297,0.19869966187771956,0.45643730618563083,0.0733624307103466,0.46352864144146044,0.36239068132962826,-0.3013789429202899,-0.3000937840398831,0.028089822036984454,0.10622494152349556,-0.2883538751634495,0.32847958634762997,-0.15525716076812202,0.09065034052934251,-0.2671222588758518,-0.27256280215253115,0.1383920435758984,-0.3369466463353902,-0.44288631666244554,0.41948099440020714,-0.3463154584708178,0.21577984603074882,0.4404865932668481,0.1131787597244642,-0.23629029123466266,-0.35101410055263943,-0.42890389430245424,-0.5426884030647225,-0.1925738392969566,0.2242609992575751,0.1397162967583011,-0.22363162915755572,0.6400818415528187,0.5827357723478637,0.3577903920161926,-0.3386086716437347,-0.07917287032482813,0.3252929073891859,0.007342947088193381,-0.35799081057692067,0.42625329529577194,-0.4941659596873899,0.26936877621697575,-0.48985823429076214,-0.09859257654797754,0.3771748331156072,-0.4549004025202017,-0.3997627166487605,-0.1564258113179906,0.47635532002038977,0.23612991359908142,-0.03906590959042518,-0.06708544176522092,0.005745982723883181,0.330550884415909,0.531970523811488,0.08614141487152162,0.008086374000230528,0.1625961955781569,-0.5009517150818271,-0.05047918832208536,0.20512681947133476,0.8310421409975778,0.2921155668880631,0.7500989590386009,0.07087102617383752,0.44518923574173774,0.023024769425007505,0.7741510553497135,0.13538522606193032,-0.17269963982908837,0.39143883195127693,0.29554160818808883,0.34710739642931104,0.24519514782414595,0.4729462418189734,-0.16846388284706143,-0.07793229256205127,0.08511721262431961,0.8107241562943243,0.12122881188728524,1.2632660910690339,0.34362649442486176,0.6526596935913243,-0.12482073564109684,-0.03992863472119262,-0.5185107126620242,-0.11102600050955323,0.37136214044441046,0.5616217512547281,0.748477048230983,0.12865307772938075,0.5143862097249753,0.3240237495043307,0.8051093009327196,0.7814970081997312,0.5111617101885494,0.20785928548371202,-0.0284174535510742,0.18320171318618889,0.48803884347802495,0.2705456399543062,-0.43747257803825373,-0.1409331183398056,0.31041932203715533,0.4149689969142232,0.21544398558067418,0.5931906470227696,0.6647235390335007,0.36108477596973265,-0.31258948121086155,0.11123260872770784,-0.6266810837037584,-1.2091224365881907,-0.7642863702286288,-1.5165565290057559,-0.6586573718122712,-1.3095572651583167,-0.4499719846001369,-0.114715664610965,0.11047978986071536,0.00012482765655847302,0.836457679616888,-0.420389859148944,0.6867896543917815,0.5951163721365295,0.011888257872083375,-0.11222803307882652,0.3299684812827597,-0.16103216635689668,0.4572708407184871,-0.31919662595576076,0.05103313793032387,1.0736736195250502,0.4285830868034514,-0.5338749446299866,-1.1399459298489416,-0.2596285394573687,0.04176391537077847,-0.5354204933419732,0.14304164178866988,-0.3249359597944659,-0.4635083902545444,-0.7458556038145436,-0.34533042163384153,-0.6922947399449644,0.30431226390646854,0.2792502152587829,0.3834069113291415,0.8237219557051592,1.4888631252388964,-1.21722292743342,0.468907802454329,0.34397030378365645,-0.38086823350698407,-0.060544713163239915,-0.4015476726639745,-0.062618556572784,0.24516441943147765,0.15116075610087093,0.6946598857727099,1.5816001115338356,-0.12108927350353252,0.5077337565338209,-0.130191753124235,-0.26082287492950984,-0.07631463043700652,-0.2666933021764116,0.07724211296408226,-0.2862808914241506,-1.5521715381634404,-0.6288519449083354,-0.8243942301513492,-0.3035581720980013,0.4056121579403129,-0.23725421766174207,1.113653904293683,1.4377111597900372,0.2529303525056617,-0.09889456827102876,-0.8610002873209792,-0.008859791309969446,-0.5692374075975757,-0.43100174207055636,-0.36418764051757535,0.34917687162675654,0.146404413900289,-0.11909779592548804,0.7576307011037214,0.3865745034969445,-0.4421910816060107,0.05441643423370619,-0.870865781629462,0.7916296605813655,0.597735014987112,0.19723153977256924,-0.19484016336042792,-0.09794160176893851,0.2175844979987353,-0.1861494882334219,-0.39662058951654294,-0.333730494178526,-0.32390977904569374,-0.2918213184472483,-0.34453893099180094,-0.26767287239783183,1.01141315395752,-0.14664699521003305,-0.8499992097202357,-0.3256050028721193,0.08330392360017147,-0.06361788480912438,0.24868634646503174,0.27303825762588,-0.24032389485706215,-0.14779480768362888,0.6464796446511271,-0.5907463393855642,-0.8765500883693278,0.5152417121878674,-0.6529264173059506,-0.010357694034773225,-0.8036203136880189,0.02775148092286342,0.5289889922529362,-0.702780482103716,-0.492255820229152,-0.3741789655297319,0.5863903277113677,-0.7887143129125035,0.07038278996046399,0.6932376592141092,0.03410467916933564,-0.17747971431293288,-0.7339826755033653,0.8833591373498603,-1.26372267920026,0.7267601043174068,-0.3763345934551634,-0.0473388893360804,-0.22561150832915616,-0.2674699071436024,-0.010979469515533958,-0.19248124801179953,1.8084388542887775,0.08425373599927147,0.9062324469195441,0.7260068293978097,0.7616386989755766,0.13110318508673252,-0.050524277810856555,0.06740362628457283,0.1239424245677261,-2.7769414754629693,-0.6230917629506748,-0.13967256514331589,-0.2741102729069085,-0.10605763320177795,0.07039416274907996,0.3155825432097567,0.437738709520864,-0.8023821176538374,-0.9282457419826405,0.01747599828593716,-2.0364581964439865,0.49929219189034874,-0.15688353605901936,-0.4861689659591317,-0.31831492170434095,0.2859085937984659,0.0959170943155259,0.6026338451105158,0.9316377344591088,0.038787863447175816,-0.2854969975303661,-0.5652729008931968,-0.42480462658937423,-0.8217935842313234,1.0878615227764616,0.5705069053740971,-1.3657861347822755,-0.7301657631590267,-0.7755563868107135,0.3251105987160662,-0.12648719993209587,0.16507174700068958,0.43444992613857925,-1.2558943035130166,-0.9826149062737988,-1.0949928528748833,0.3352789248416552,-0.8865059166865241,0.24499372435650796,-0.18782941789686353,1.1017242105416587,0.018997605714038943,-0.3838008698830403,0.33730290566835164,-0.24663766711416915,0.8771317950286739,0.7287810210268167,0.3388866803577675,-0.3226401390176331,0.14154022366557797,0.3228170047799482,0.2713604691460755,-0.2305848850068175,-1.0877028442229475,-0.5297843906858205,-0.19219728034548178,-0.3265473405158634,-0.16844312327408734,-0.10599068297416897,1.68239474014995,0.013136237632904137,-0.854228262196862,0.43594737599691286,-0.5608184891403768,-0.20344590759213602,0.05526667887440229,-0.6448903396855699,0.4544195786782031,-0.28288580676229236,-0.5261952304813278,0.31319615003541373,0.07453435610932298,-0.18089543250814555,0.9093465409659051,1.4265635433498565,-0.25099273736861566,0.3696033459674754,0.030894081851578954,1.1303592014906443,1.5827636978087418,0.547816609974499,-0.9335302504599288,-0.06663835887557683,-0.3381398856061937,0.9223521411650889,0.43129109623991485,0.08725501735686833,0.6969928268410174,0.04143165254064722,-0.33453204589949165,-0.5043080941669331,-0.5534444348440536,-0.18640762174859546,1.1587851846876969,0.26503515641577013,0.5544288784753446,0.15453190946348463,-0.31257593865827027,0.17612872178253644,-0.1154816036987779,0.7776554424472945,1.0365066812205979,0.7150973155803002,-0.11459174737801926,0.8307074457042073,-0.20677293603862215,-0.33274877794591623,-0.17989581318497697,-0.17674724777907172,1.3189670046258242,0.6589500344479458,2.2537100095039664,1.4669436568475316,1.1882935273983826,0.5674698598316791,0.2619684335323476,-1.0017198514551486,0.34072475989251627,-0.05888486133678881,0.26852227229690967,0.2721527306332276,-0.10449367121279496,-0.905346785991779,-0.22131084704354442,-0.3404985494538526,0.030073908931917553,-0.44084299620069006,-0.4566572795168015,0.3423869298241454,0.6512768517906661,0.2318963742280008,-0.27979013650055545,0.33744085349199493,1.572036481998484,0.6893498042345662,-0.01502937754883749,-0.6578251279109666,0.6262041120014221,0.9522143685805013,-0.5413800618128103,-0.01106300850922773,-0.8968191502129924,-0.33473798091170165,-1.1495007855985815,-0.40133694688891963,-0.1344203884059787,-0.21153666530770454,-0.6973380655348799,-0.6433564489467175,0.4475939349294694,-0.10950096994794142,-0.5680368322647238,-0.2847901131247825,0.05546368433148005,-0.13613972203038993,-0.43120431921638946,-0.3727192802199854,0.7808941739043376,0.7642797134040631,0.8742698281583554,0.7794133690481762,0.20954170105405867,-0.19507720095294662,0.26068951814776553,0.38192025706909816,-0.14463687764901698,-0.6563734273760723,0.28607633382070863,0.39848079576290124,1.3212875925841152,-0.09679708818810735,0.1751443747524287,-1.0242930137673134,0.6789237278601299,1.7861412094718763,-0.46266376766006434,-0.9176390011470206,-0.08783879378950489,-0.06077275935811989,-0.26434954535506516,0.5713481951560007,-0.03774028043462696,0.3498873804326835,0.06851645336477251,-0.5524840164633332,1.026679140760856,0.9977812946276066,0.14537416184741403,-0.2501374252610904,-0.3762404815090305,-0.2854921146678232,1.588047505667947,-0.14816540586432853,0.7997326767726278,1.7353654344099134,0.30754824142547804,-0.7252594469456494,-2.1123061996831973,-1.488497914929154,-1.0931540913185676,-0.3966506071779498,0.6307715767706821,0.7010282135290266,-0.5758487807634851,0.1424525414587287,0.23762653531086156,0.1953987664304192,0.08094242487927951,0.6314809391113566,-0.2188484779148546,-0.01193711044805984,0.03778136698913932,0.1054601078176477,0.2661124985643419,0.1677135681443688,0.023849656279247972,0.49439121451922696,0.29938203906467814,-0.3766996606768531,-0.7481672187474636,0.29875467766039304,1.478749609232234,0.5842215630410665,-0.48682508321865253,-0.4140092454531269,-0.9234429950836369,0.41840360027365836,-0.3952064225084224,-0.26965619649044403,-0.3898956862057965,0.14287834228206986,1.186722366465695,0.6727524350886932,0.5075633650905067,0.05845303264627711,0.12736886374828935,-0.3769191178089932,-0.5421915028056495,-0.023494551396089414,-0.4816484862638772,0.11266918174144011,0.19440007305759505,0.40294830601264636,0.6525516299661084,-0.8010469236179715,0.6487943802083057,1.6688187244700718,0.6189439003384603,0.884555607697006,0.24435323907524736,0.26072651619276593,0.11259057129512821,-1.4170886795060333,-0.6816726084266854,-0.7639160569529042,0.8799826731500693,-0.4634783850053495,0.8125659994318334,0.7280457253406438,1.1970189183436701,0.26869470901818554,-0.07783203588968249,0.22645419085485596,0.5238490176419623,-0.008161120200225856,-0.5065789777255931,0.3098403360206975,-0.2315681519126662,-0.1445648588353799,1.0875799528116648,0.15096918822050634,0.6798309330630068,1.0813050258606427,0.6667155562602232,-0.19907504871657347,-0.41767630057363936,-0.024748348774477097,0.2539575598155304,1.2177407747746576,-0.05054771700120071,-1.3242942589180977,-1.3259456456982457,-1.4293312139221928,-0.8958834383731966,0.5297732678807603,-1.157459507243021,1.0936405165993432,-0.13386411390961045,-0.31589621216484254,0.8426119184469864,-0.36870658059671263,-0.801241856200283,0.25268496327300966,-0.30287513816681216,-0.239832920853206,0.37864003126886325,-0.29121429202361415,-0.26404496061112726,-0.7912320746046135,0.09871729638901638,-0.3173007204375373,0.3237997910372035,0.6005302151687227,0.08494267468450387,1.4548170214750789,0.5572501259363195,-0.667445836926359,-1.3291651005326668,-0.4644407731959665,-0.2961815608836989,-0.5438826566629433,0.28154623060473455,0.2902586595613579,0.11770710193401313,0.8809610994735496,0.9571421924147607,1.1799689145255832,0.6386873014421722,0.6957534129646046,-0.3768801809060051,0.038977490898787125,-0.16121874131518754,-0.3505950402444822,-0.4473925513060632,0.05991555661562445,0.30870527430154177,0.045659618342281987,0.10825897212421284,-0.28699713011305256,-0.7290906801613145,0.5544162692465722,0.6459441085453982,0.3319361225528255,-0.4955478451886284,-0.6111703783608874,-2.0675131202159895,-1.497844848329515,0.14066190335685388,-0.3906527973115478,-0.17725491712730052,0.4831623751886792,-0.9057397935014619,-0.5419489759215026,0.32317207474079834,0.8404663445966446,-0.008940954856628871,0.19912302468440918,0.08146025451972724,0.4496614650634716,0.2010919613024986,-0.391721271528142,0.2707639174491701,-0.3727940969264557,-0.16982836056432793,-0.8927501671717878,-0.7404485106391043,0.4334947922342061,-1.2864043183275675,-1.357665482777616,-0.07887456715752814,-0.6895147392234565,-0.5672992118801342,-0.8112905312941542,-1.4089359316463168,-1.282169932952217,-0.3928157386935401,-0.6461231034034074,-0.6357181665143679,0.47967007664952127,0.5600537686575613,0.46289738926794705,-0.06105237997855898,0.4298945392935111,-0.13172838160523762,-0.4039755466913429,-0.3364702077163489,-0.13825222678631224,0.03872164842989786,0.13282452287194324,0.005724612263347417,0.5130095083686053,-0.03681355514653308,-0.2962880307612744,-0.10116472793231435,0.32779566440137387,-0.7234362184424573,-1.2517996498743456,-0.45603694716950843,-0.7309251397619215,-0.5507995048993182,-0.18281724039798258,-0.6834625943223196,-0.33096392968393273,-0.4907238115640156,-0.4862595640203774,0.3828227656765255,0.5947982306311347,0.23329542886916013,0.8570588892444967,0.24098498874490576,-0.22756053352454986,0.12591119900142414,0.1266935387725177,0.34406461609826067,-0.1692646723847768,0.08694177845665763,0.18427084972281016,0.20289170110131993,0.49340576452252427,0.33383648926815596,0.045599232901343864,0.2636683231992016,0.36021954341792495,-0.5673330039832678,-0.1226784493719166,0.16218955063667193,-0.5884996365666371,0.40442300839669393,0.2952426645127986,-0.28394478117097177,0.13894334925499302,0.006425993962362467,0.07581301650767018,-0.22271961691476821,-0.3202921923986343,0.24507999904797376,0.3982757570891006,-0.4372567489545441,0.20724913075195323,-0.31513118676894486,-0.32226055016065874,-0.29208752235977725,-0.3784147461676146,0.3009449996568456,0.3110270304948296,0.3976315809339678,-0.05011178445093778,-0.01326265159794689,-0.32764994661048835,0.5752951172938432,-0.21912280509618115,0.15604854446130492,-0.01976208244372461,-0.6883504053038237,0.02069009856830103,0.20694982160181122,0.18250267936168932,0.21847934957868181,0.26576040590574357,-0.10459997388990819,0.3251360410705673,-0.07700164063950152,0.2862999961007542,-0.1473749724668993,-0.16360032030695784,0.4472302880947934,0.28976005459846765,0.06679949291328681,0.024301565378542143,0.32800208606562214,0.2680720606051147,-0.12997638428233554,-0.4661504923781693,-0.44611466449433734,0.4294591073031111,0.3268085971444009,-0.14101158213558956,-0.38115229967401676,0.21797583644827484,0.1673893355386541,0.17212918158267454,-0.30103774093033825,-0.31655015322395164,0.0768262045001696,-0.47404316750414244,-0.1480592598657858,0.021237384629097262,0.17600977913112822,0.33348865794128074,0.18845044361702695,-0.04650127455326951,-0.042163436203547795,-0.34368027669233964,0.23176524680195038,-0.3372167829015118,0.10367673747798023,0.42295711057450647,0.16068946116099758,-0.39118847879322216,-0.33151498352787734,-5.061083184082152],[-0.14673730055356438,0.18502978962528283,-0.008687676464720462,-0.30192199619660454,0.0670261366728282,-0.45189637785861825,-0.4768509340572552,0.49894289348962306,0.2978867427797472,0.12314163978704502,-0.30325447465480837,0.23571133680082232,0.02712057459034587,0.10646469844616126,-0.4003417451864667,0.2767244384790013,-0.4940568589447632,0.324075519539603,0.4273942783039062,0.14704727273247187,0.4368052848476389,0.07998030379579026,0.04839318947881523,-0.4613687998223204,-0.4663491582121144,-0.08702168404976451,0.27922305012574533,-0.30455342632972376,0.10428045644986783,0.15089367137289855,-0.4932608044971981,-0.08727266117308252,0.15091674965736535,0.43431094438078754,-0.35703822475163915,0.21205290518799064,-0.07670452962217915,0.34565066144366985,0.27326658499587175,-0.3469980007402457,-0.14925565937417093,-0.31276451517459075,-0.38668224569021326,-0.3265090285220312,-0.1761268910144585,0.10535146603767555,0.24715965642782248,0.28475921115019587,0.3994392656407595,0.3208165708074958,-0.38945825295327763,0.40163622168354574,0.21495664371880585,0.011883543405796226,-0.054094899186239775,0.13919213815750597,-0.42960034797470237,-0.11185564436150774,0.16816841796043833,0.3185011284857078,-0.17631261864141243,-0.08286899949125272,-0.42192693119810243,0.10592392037768852,-0.16682304946188756,-0.3252087733690546,0.16830968568577764,0.3091462122297838,-0.18320875706820033,0.28886250745897574,0.2588456090199946,0.4506058062963124,-0.15316255703470635,0.4219285029467093,-0.17193386586720016,-0.17675990287553972,-0.3916886276111059,0.4026716077624854,0.042634210821665006,-0.2556120215749515,-0.017265679067828,-0.37598810871886074,0.17476887845202127,-0.12579646391916127,0.2562237429444594,-0.15041871531410522,-0.08612395201233247,-0.3574553126700412,0.464992804804845,0.2997682556327998,0.02991189279101455,-0.286222037512223,-0.2901968353839077,-0.2922178723930918,-0.01951775349751045,0.14422508933397987,-0.014124708158911824,-0.1625759925527552,-0.1824063043666552,0.08628969077781061,-0.31099723209562297,0.4005936543934907,0.24132602890971663,-0.11398591363667468,-0.27671152444126146,-0.6948152205671313,-0.44969933613399077,-0.30437578341347915,0.20133828471671258,0.38897196360802144,-0.38316773587869835,-0.16731751464634143,0.030964651885661554,0.03429307947608024,-0.3024626009530984,-0.28593326246430045,-0.053152997504513085,-0.04305997396221147,-0.18984053959627745,0.6088991913522912,0.35462023222571754,0.7293624890144522,0.15371341279296732,-0.038863404281842755,-0.15320077753241154,0.08932661271557989,-0.07970047174012665,0.2045364794389791,0.29232928126028035,-0.452615209540001,0.3429596992918028,-0.16531806088286383,-0.14658382100892908,-0.21981558191557712,-0.5084387947859914,-0.129198245277496,0.28806893836591485,0.11954014338291331,0.21331754507171835,0.48249774495938863,0.2710423276263131,-0.33479442957382405,-0.4873740307521357,-0.3607434071580362,-0.029913483373820743,-0.31060710042591755,-0.16914588551595058,1.0100177855305028,1.025644246605556,0.4160196599641975,0.2583414915014509,0.42029880641529294,0.6680787884571626,-0.2546461055670314,-0.47223235387466705,-0.10410002398511178,0.14605334369078393,-0.39973157775991935,0.06364749761057402,-0.18595293612664224,0.9340134236447445,-0.5125782788938669,-0.4509794763702961,0.08092099219606816,0.2586196534025455,0.35773935800369633,-0.49878057665497877,-0.06808772836283082,-0.33724532154238446,-0.24363575301810833,-0.1709035206309275,0.4811418632577909,-0.14967789031775067,0.10161228624134938,-1.021069499813435,0.14615189263793132,0.6129258239241807,0.9168560045448487,1.3810325299727488,0.4836854481715315,-0.4119391522040524,-0.3526449857406862,-0.1512390007283241,0.1904688106278165,-0.47261358567149225,-0.5841047446979876,0.7876457639591149,0.3801920723461134,-0.019957890466457073,-0.538141726121007,-0.7213742824309451,0.10933108559513086,0.32169135814409683,0.00032981411654188996,-0.3461121715571912,-0.23197788781000586,0.13113999690359734,0.16044226774116022,-0.28058761663873005,0.38088955108157624,-0.1691115284873945,0.11694568646714364,-0.10239992611727493,0.004390649229748622,-0.3799825183874111,0.1721164596294142,0.6186172771858903,0.12386608769258575,-0.5411501001518383,-0.19849368418299385,0.3051060557411868,0.6656573921433869,0.29190491380893147,0.22652063346141507,0.8570877321831956,0.42007656853968667,-0.011381481414759094,-0.25684376829518507,0.15648442749038588,0.28202038077468444,-0.1535278425866073,0.2042488890425464,-0.4075905758844484,-0.2658896488609771,-0.29827069267259065,0.4476853525070231,-0.18035932833309096,0.21282128283054144,-0.4279424050630089,0.4318859773757479,1.1711348884709678,0.5682149418411367,0.17849789856737866,-0.017353888216554002,-0.07157000578837036,-0.010533130775323,-0.17722329240536325,0.70960073136291,0.3846187899361172,0.08222919930339849,0.26960710251105285,-0.34103858561376516,-0.3085207474819755,0.283510335690764,0.6713376416883465,-0.6823019510112815,-0.19679891392107632,-0.038556575234412506,0.30759272693418294,-0.41456817606180973,0.04354842154236528,0.176192011272172,0.24307812223669423,0.1748062518978058,0.1493773871540933,0.3415675501474174,-0.5642469022263382,0.5621825686806086,1.5789998465543078,0.2703937494201182,0.18573297029197175,-0.5641482030678974,-0.10169519911665556,0.5668091729380725,-1.133342883432931,-0.5435810746954638,0.33998274836942305,-0.6083462385178072,0.4427140018069728,-0.722862743695797,-0.1700594490530741,-0.258864116507385,-0.2719657064104096,0.5166607527227988,0.4990870183463177,-0.26326825051282743,-0.7179610238546384,0.3210320590950304,0.5592565913239893,-0.24450857253527883,0.036565132127280076,-0.31671988018548225,0.17035044277138128,0.42187474850176276,0.03181544994735282,-0.05146153197061036,-0.052354282300502666,-0.162386786151036,-0.13569052525888753,-0.6790750804462137,0.06964648752876895,0.5505348200394649,0.5996615593174437,-0.3268868257076069,0.6710035799401124,0.40635411460794224,0.46581723440406697,0.21742399859095568,0.7254233138498822,-0.4404170413506472,-0.8813652964941291,0.5594405252249397,1.1495797952590416,0.3119475921199076,-0.4865098263435454,0.6682449562528049,0.34477142027279317,0.4542124453352871,-0.4150500157460497,0.07931903365655318,-0.23815237732924677,1.0890582800342745,0.6123156674705406,-0.5166597481290347,0.2801100366826273,-0.1925477729448913,0.04068760997007133,-0.662038508073253,-0.25296580603319074,-0.3260984202813249,-0.6772220788459408,-0.25961255562424057,1.3263369402516911,-0.19936784423614365,0.5813491961576706,1.1572261174894731,1.798667557625109,0.9980127546750526,0.3531573324733202,0.5160654889414796,-0.10201958218792079,1.058854383277397,0.1113815199212086,0.9151049440585085,0.011082352996012177,0.44205842424186925,-0.10043385452957557,0.06975731868075448,-0.4697250221622083,1.0638764241888947,-0.06725061120949791,-0.342047558423228,0.6763194687948602,-0.5828466788453166,-0.1251024801685003,-0.17645853432788033,-0.4365655106945197,0.5423047427883905,1.1158133917189976,0.1423603593869476,1.0954801493109114,-0.14131724456405964,0.996134033065419,0.38948661810357527,1.7287088387512484,1.4470510901427198,0.08260024116021866,-0.0027936888207625364,-1.050758163081881,-0.5930791894637825,0.3261499032514759,1.3785911765413523,1.031416814051704,-0.21935738623157003,0.2803335710530407,-0.32223088197581573,-1.2522367154177527,0.11506416941244682,0.32734666057505946,0.7505200224439527,-0.5311542499865193,0.7453542769524739,1.0128858218147903,0.351097794929758,-0.53446797667641,-0.09994619620715015,-0.7256144450423734,1.7170765323304025,0.8044973655430934,0.0665015001503044,0.46303515366964665,-0.3026384940767764,0.371943954115294,-0.07244716224217365,-0.3082652123115292,-0.6409654746773698,-0.0525639583690337,-0.21306372348875874,1.5639137323227623,0.9101222763550193,1.4616550706053024,-0.19922591276315366,0.3198896915217199,-0.5257159323316702,-0.4409578718568865,-0.21532005143801702,0.5887064230897707,-0.16475000375281298,0.3537352312820565,-0.1705330215811586,-0.5790884242314253,-0.03861967061413762,-0.8813387250025849,0.47444346600146253,0.3219991473719297,0.2777197444999305,-0.47489848707207155,-0.4233429160449825,-0.48630417086016664,-0.6956325315654961,0.21215659306652432,-0.7094643124586454,0.7076417042710031,1.0285705558902158,-0.25164738564112693,-0.16527991080452714,0.6499174451134067,0.5961790099755884,0.8656471739287419,-0.3514566680701266,0.4338714951608843,-0.33188328490179364,-0.7867343214916975,0.03639777405516667,0.5781549530282718,-1.892192690288597,0.6769090711382227,-0.08341139226069962,0.08416081857113396,0.37139379087333196,-0.6140807667634437,0.22322527071906764,-0.03979643368358927,-0.39314229132666084,0.004387945821110505,0.45428352732260435,-0.09212738912902416,-0.17343411465310396,-1.2846987893870896,-1.622959828058101,-0.2248530915156814,-0.45768781103395423,0.14886665264691246,-1.431594244366953,-0.7825308522269757,-0.25862438002367955,-0.07317162206077482,-0.6348107655941124,0.030983302817784497,0.2906696238485572,-0.9800217430586576,-0.8436824297680112,-0.533715265581927,-0.0746646900023294,1.0205165287645834,-0.03210956352436906,0.36504528439782175,0.8984807798194852,-0.045319025521663524,-0.8313571086045823,0.17117213136362594,0.4846144543494569,0.7211581071044092,-0.06384965981257619,0.5996953253334097,0.18045301926802124,0.3813685939776179,-0.9720416262825126,-0.02501061323896535,-0.6444387060143837,0.209508956139591,0.8224746494240477,0.2770746287841339,-0.2753312600904878,0.06681851946689005,-0.5182323512449031,0.3217386798494969,-0.14112434291654877,-0.4045077987050317,-0.2513604487376578,0.7792622503656329,-0.018793533686695216,0.5240181874128481,-0.3677409143792184,-0.08777689321187129,1.1226725421488457,-0.2997373471360314,0.22549588592504596,0.041751973079521734,-0.43799333946126984,-0.6759078615802421,0.394936285475022,-0.3096230087394818,0.10749867855849714,0.2942533003080608,0.22614383954851752,-0.462867490301794,-1.205734791608058,-0.03456819698269369,0.7040594713129276,-0.6450175168344067,0.31104149799778086,-0.3333613374320369,0.5039168684815101,0.44362284173005073,-0.3696849760699837,-0.6153589079711778,0.4374113362876555,0.27715970671947754,0.5302209362812148,0.8020944929250308,0.802000385292042,-0.5983912761170791,0.30508260065429554,0.6519182742459594,0.9505966832363305,-0.6292662234669366,1.0614151984642373,1.7281249279315676,-0.4995394654078264,-0.2303859417816991,0.7968304816180307,-0.1810843011210037,-0.5410964278509487,-1.4233482806103543,-0.1007850352627133,0.08796259038134292,0.09922533666786663,0.3354384748853118,0.9158672280679084,0.1594415133024823,-0.2015769712451276,0.2845890521866028,-0.23478272700137612,-0.5268908565898708,-0.6285292398140393,-0.3254538375805285,0.042742663139299183,0.21419530858543231,0.851239678937799,0.6568242445642533,-0.74307258095769,0.49696044952094115,-0.34479631552628676,0.3998935285663539,0.897800232380093,0.5882238474381686,0.5686431302822131,0.6860175053091526,1.1691952933205585,0.09075213623103533,-0.5555948644490185,-0.3758366187699753,-0.2405035853021304,-0.2056836699735622,-0.8598153203613166,-0.05712141078588245,0.3005677578921357,0.02812033862092561,0.06645974866145249,0.10780887242084414,-0.10108214882655103,-0.13301430576247686,0.5339877058262963,0.15050772696512393,0.4829416173243554,-0.04570053321422236,0.007109846605828668,0.09705170813424097,0.14551720581578317,0.2813470386757857,0.36596767352588383,0.6222180118140607,0.2978867796564589,-0.3880162884512904,0.12831641664343138,0.8538218650696932,0.7916034675649394,-0.07939733118034223,-0.9288993486049436,-0.11337917178204052,0.20311919133861878,-0.6026161217965713,-0.4292438407103808,-0.11899586420344542,0.0292441853614805,-0.41242285467263495,-0.22854118270764215,-0.3982042061702703,-0.1384784219639145,-0.229215245951116,0.01508182859142419,0.04989205840082326,0.09633233544917544,-0.07369512239740855,0.21740274253642974,-0.4283334649060287,0.38851911889044793,0.04763879890416662,0.5399729711649159,0.2656607792527328,-0.014007436217716203,0.6187479637996393,0.9543950132053682,0.17479272824853898,-0.034301648589169044,-0.33955557650561424,0.2567777317347448,0.09814505321253861,-0.18780116144096184,0.29896168716876026,-0.1059183475089947,-0.07870811585521884,0.4476742999299662,-0.3022779224178173,0.47850070263213557,-0.4759839569121676,-0.1326161582348599,-0.4394568245872271,-0.06676383240738724,0.1108537412135163,0.6338848196658725,0.6884788549024741,-0.047317528888026164,0.04254528747091671,0.18203548170642492,0.5661358229967695,-0.31926709890357746,0.2466599361605627,0.5389139967931595,0.5516749742901548,0.0012379600815763784,0.34236455472459965,-0.2534765746543215,-0.9090313813999598,-0.3970573597343219,-0.02664394838555089,-0.4161479794958181,-0.0003994667103748216,0.780013689196715,0.5535457113399578,-0.26679926668049997,0.1365487345771547,-0.4775860915955334,-0.2353070573970109,-0.4754236988774336,0.11501340342936091,0.4729004967270488,0.3461003305586604,0.5234162351772058,0.3502547720766239,0.9313402491353311,0.4335622994122484,0.5752702530919518,-0.37779687740096596,0.03253583374079843,-0.08789655515310614,0.2684054235378101,0.3783276077494362,0.8263490014794684,0.2845643071064803,0.1525131071228807,-0.14201723522962223,-0.19075738707839227,-0.532660603119381,0.09763979068332318,0.03370287582266185,0.2183884928207392,-0.3767517605363633,-0.2606405268094945,0.28639663808235155,-0.2541100819267817,0.24347355116444902,-0.38300984701401025,0.17392312127812,0.45082834702247443,0.3927368425297729,0.20948372955596142,0.06739508008651003,0.21947144820232106,-0.21601837097821852,-0.3375709233580119,-0.2936125094766291,0.23641251228788315,-0.4856364855939184,0.12694070756071804,0.4978075783176372,-0.17476731526452915,-0.17590245943700364,-0.21081848465931194,0.16629632670214084,0.17682188927299639,-0.9135453802217137,0.3468479575055347,-0.5965770324971738,-0.027633453751161857,0.4114424500973456,0.4612358431514029,0.04573748112531429,0.10565631562087252,-0.4120826645318528,-0.34054464704794435,0.486713247187941,0.4887762112394728,-0.30598938259372277,-0.21555599033588382,0.0176377689429824,0.029232349377107242,0.4480711934431967,0.3494769324105409,-0.1620572464105436,0.40605183721294785,-0.2893089086634339,-0.0710151498610944,-0.10185974265871262,-0.36250548341896116,-0.425569731746618,0.45567974674782824,0.06264464464332954,0.24856147835710835,-0.06575016671273595,-0.6038797605782537,0.1184591821827366,-0.007773224660727949,0.22461602447515874,0.2197356620187505,-0.13529200341189762,-0.29092601413109487,0.04111178742208366,-0.00642245949493131,0.43425397599835447,-0.11760040763836486,0.44078510863759385,-0.12630893876809504,0.010167140745918225,0.02258568003835023,-0.18947453967163377,-0.30294732002736624,-0.26884671301626445,0.4411113063743999,0.15835288863003213,0.14790532705467863,0.10290487443218013,0.4619452652087957,0.10235038926610798,0.23793917510135695,0.3654698701625017,0.35464376987590635,-0.04088795450430423,0.1584765726177343,0.23101878342877016,0.4810763394638477,-0.3276269032753288,0.22485152274025227,0.4326345927382532,-0.0787426976417967,0.21420609158306625,-0.02811125007456383,-0.4779230379859236,0.028563731315772722,-0.16204603579162455,-0.14861152716736825,0.4226683213796288,-0.03811385099259885,0.1957621556534693,0.07322262820054898,-0.02643705635353506,-0.18627920458784256,0.24766608993406972,0.004334888893459382,0.30789822177970383,-0.40678920633334004,0.46974527564505686,0.31399954333066415,0.2021480723823785,0.4823900463556052,-0.02891232964334474,-0.22075435091399842,-0.3910021726266674,-0.06252768930894204,0.3635588536787767,-0.24226567988147324,0.41369947507292026,0.40724017910360677,0.7130399070555278],[-0.3549621979934508,-0.38342370724470354,-0.38495726654322976,0.251632910180561,0.06012903836901484,-0.1170004555323374,0.31640731300704206,0.3700757956464508,-0.4058633880598706,-0.3023342131373669,-0.21492473385427224,0.3496774167184781,-0.2719499248320087,0.32699799333459734,0.1959669805378812,0.3208015551706528,0.016674021364497024,0.2591975180164645,0.3710471049497162,-0.24589904173288502,-0.49828208023264686,0.4415006264195999,0.04584460431267035,-0.03626241423201698,-0.26350348214143415,-0.2927444087316482,-0.34568933087044174,0.17354534331192106,0.3688335166451956,0.02046103778496955,0.1415605167401356,-0.3345242395306415,-0.01829023356163787,-0.49586382270131923,-0.1062215752115054,-0.4690060470361739,-0.4434797331447569,-0.13968794761320102,0.19213441936691403,-0.0012759185771909615,0.2974974297709138,-0.007008308861300803,-0.36892677249899686,-0.3078103944920768,0.27985575166056964,0.08048896903545222,0.2864427345748023,-0.013576967402123202,-0.25267112230341804,-0.17010076107756406,-0.43973957886833753,0.3473395606434716,0.3145538352678162,0.20171126592940747,-0.172849242359434,-0.032020399152918766,-0.2971016079612909,-0.3631652478075058,0.09153523911778357,0.4469534090869879,-0.07696232855176527,-0.2710546505542041,0.41227519158861137,-0.2647740075920908,-0.44881641361204444,0.31795471662671154,0.4789915000581939,-0.1462959479157238,-0.23022739320508548,0.22333684454125777,0.3318918363808737,0.27850646997154294,0.015400582510694457,-0.4699831584544389,0.4828663211650535,0.3277536130859705,0.5023770337449892,-0.17667592489809003,0.3709570331268755,-0.026346664494621357,0.14390967901725213,-0.08168947532877864,0.3109174001800231,0.39169602644761337,0.34721982015830866,-0.06466286165294388,0.13068296478916808,0.24512481142595113,0.35831205935606786,-0.1729236438743392,-0.4901967862108163,-0.09798942713567242,-0.20949451186167256,0.50817294454772,0.4541826888980918,0.698364076791096,0.6411046264602649,0.02028210737530481,-0.43809765365430714,0.040070845219103104,-1.0422121357676644,-0.35564578637960953,-0.3746536537910694,0.3196614623588933,0.6464369643265195,-0.08325945409010782,0.2895101556048956,-0.3755954053178478,0.32489735080753296,0.32767296351329095,-0.450980061125455,0.45992306546909545,0.295702713172884,0.09519501118236642,-0.24462706121490563,0.5243665821605462,-0.31352984894595165,-0.6170020886281279,-0.40396259792891337,-0.09345050136171142,-0.1973574021065061,0.27901408580907694,-0.009982312167199692,-0.46615643547098123,0.3995972518936464,-0.33573601030199407,-1.3169081953380717,-0.7410874731912539,-0.27524137770465956,0.3179893241809363,0.6826273454161552,-0.28662022612246296,0.4541656141284346,0.6796767843194743,-0.10653719184146833,-0.3043757620362773,-0.08598097130140436,-0.4009842845944568,-0.44375146125700315,0.48330180397338107,0.23441517833607417,-0.09276774874856031,-0.2406119406272622,-0.32197533932682637,-0.06883684762062936,0.14001512297179206,0.21210959964227794,-0.3539480948432359,0.42114143073798216,0.47856924246766885,0.6045449955030406,-0.18602426397369434,-0.3988987937493591,0.27566495722965983,0.27854000487312536,-0.30311429402526896,-0.0014871385880089588,0.10142468225725725,-0.29443082092535716,0.4913391453369712,0.22500323429680352,0.9977941953438254,0.8254264972246196,0.18375934812955066,0.337310665083705,-0.40783403135839086,0.060356750959045496,-0.34165568082887554,-0.014991678154260668,0.2436614637417802,-0.47017702323175115,-0.13596146933823827,0.15274298969847605,0.5641289795005928,-0.1372988976180476,0.3506827824802231,0.8172609226243341,-0.30735750080863117,-0.03214052904450911,-0.3475100540175229,0.4312567379436101,0.6368365056427335,-0.816185698109555,-1.818159077402875,0.0019101918055843975,0.6635409279066293,-0.08897632635471775,-0.14031035753238574,0.09509108897090628,1.0362158592850643,1.1911367574905614,0.40468442370699187,-0.0427377424236144,-0.34562695019181117,-0.33881002286880074,0.39970423064933186,-0.4656716323272062,-0.34427153241841957,-0.06828137653282616,0.5506550774290746,-0.4598244464938532,0.5097424237825814,0.5999423844795195,0.32169426305505094,-0.4976276069906808,-0.7715331749444421,0.23954845039783434,0.4088140530485299,0.8043357539288984,-0.6730198090460786,-1.1205055588207946,-0.171893599006653,-0.027104099008799832,0.6975182356954316,0.4378639373575788,0.23944677818489724,1.6228295376231803,1.337535777363284,1.0689613214464166,-0.1082531722383173,-0.5180051219220608,0.40124124826599594,0.08354651451007539,0.43280654258337287,0.39963655258176345,0.1311315751670954,-0.06540329690635514,-0.030413321831737377,0.38640353964674024,0.6760714967539643,0.5955533397104404,-0.42896795833795137,-0.19820802915870545,-0.4531966795640384,0.07363555642674166,0.14411508895873718,-0.5644597933655037,0.14581525758012331,-0.9791315143710597,-1.3518705114075134,-0.4234828513904993,0.04675155601862616,0.513348523417402,1.1386701125302947,0.861977618675309,1.065214063670894,0.5936868379733964,-0.1239946487297551,0.1228998633909185,-0.4252418934474201,-0.23886189954290746,-0.31656325011658826,-0.3469236057892919,-0.28871668481962115,-0.3815186237538029,0.29212569557829987,1.0134436902554809,1.1980512502510285,-0.17924709436209213,-1.2581905707084007,0.04040321336483829,-0.07225436561685121,0.17490348260005129,0.24292999802760568,0.6059676495362403,1.0599392124351432,0.5331008352794606,-1.0616252914660669,-0.24575021452241788,-0.37542533900034364,0.3559822219762854,1.2729703123787042,0.6494175218847923,1.199909278933884,-0.3934497317834464,0.08493188790114534,-0.27797894655668615,-0.793862777264534,0.5230378203182566,-0.27678143785153014,0.13858524379046155,0.37288223551184074,0.502669168208512,0.18429583521322807,1.660013072467269,0.11359528992785677,-0.278184039802916,-1.0282947631496542,-0.41574215570570827,-0.5121782630469773,-0.12432058515586902,1.6713350253099615,-0.028907198044733615,-0.5329194838404159,-0.6990004854537468,0.18858182469928075,0.19557348330182345,-0.11250203849251753,0.4284770402437673,1.982253376304673,1.4692190615461325,0.5998511282987622,0.1647079193318737,-0.31339274896468067,0.6564010997878411,0.02458409114104743,0.1036103074140457,-0.3091261553792274,0.4183721305258036,-0.2227159882110528,0.20656161586922858,1.04076553336223,0.8650377332876931,0.35515697661392404,0.508944612239658,-0.43989377676217223,-0.7173298972072939,-1.148207145003938,1.133186371682306,0.35065559361687126,0.40430889053775604,0.5415669956891134,-0.17420280278244626,-0.5505824988140758,0.18585342933913124,-0.875794028968009,0.256171736862539,0.9159545225946827,0.5145423698319562,-0.3505808487407718,-0.1264434568016873,0.35364691255448866,0.034920108602077886,-0.42334129923385616,0.4108627545621391,0.47140178374418357,0.03738885439510822,0.35363655922626114,0.5595025349632998,0.24924675005084002,1.0824545541577286,-0.3406063358656033,-0.793754328260245,-0.9321447128552748,-1.436644372264487,-0.7158520777753506,-0.2446018927943279,0.5784557718277465,-0.3474071568509447,-0.04296995184205628,-0.4672136967446392,0.17057894575028418,0.49908166800125886,-0.0858877231166257,-1.8150324747135147,1.6509691789374819,2.7349528419201214,0.5552897409097686,-0.12512094865649415,1.2182380254386198,0.677575491561321,-0.5148945892465232,-0.135192108317274,0.229002497610803,-0.18513381627407427,-0.253637254360741,0.13636103738106486,0.11323286319925517,0.4589068408954154,0.9548755096730833,-0.6327449837254214,-0.508363611246668,-1.5115251999392683,-0.0758117975450843,0.454076614782799,0.6614852473655258,-0.12294412520898355,0.19442741004010508,-0.0486159224042076,0.5795049343272893,-0.34323267080485276,0.10670712202712086,-0.5233215161221184,0.12889083293226045,0.8983118035799539,1.4896393175603033,1.3033172107853526,1.880778343926317,0.2620617629830811,-0.4678734453845022,0.5710552324727461,0.12465334161602101,0.490835103508028,-0.1590737541910061,0.341684386507661,0.6770342694973425,0.785862106297277,0.7370869818543373,1.156178522376823,0.17828346811049592,-1.0633192068202946,-1.2009007952920603,0.9040627837671268,0.7004201186199979,0.7652067751698622,-0.388324545055684,-0.4395772612327372,-0.8137265053265572,-0.07703515666035861,0.10025419011192051,-1.425219793081424,-0.8598489057680069,-1.3926284305242878,0.6193981498415283,1.1484307813638852,1.3516142633479171,-0.3554944513902446,0.13248552188045887,-0.6565824385967799,0.06319157755822677,-0.4122248417588186,0.5568672490593264,0.6640370542123204,1.562535320757449,0.6627877123141996,0.03084818277262502,0.3796180196357246,-0.04869904610699434,-0.20722534960417063,-0.533522337654817,-0.27084698896078807,0.016141437281556332,-0.5229540319267683,-1.1456609403804188,0.48369457370265795,-0.8539743240645861,-0.12043127259940611,-1.2498154800910488,0.028910583539260445,-0.1717407259186496,-0.01383666455143462,0.6102491026152466,0.42520119730305345,0.330527358277068,1.4583788919946257,0.09311387729352603,-0.04383344577052676,-0.27028953658655,0.16282182215187713,-0.30827323978710125,0.29129894337923,1.789778154720024,0.2486919150164107,0.40260618563801814,-0.5044385046987284,0.7011302873409686,0.45697644581700536,-0.130794704201882,1.081461479748492,-0.19076572024207128,-0.05480920360120172,-0.23680883086644325,-0.774967653169003,-0.4466169919400552,0.4464512445233681,-0.2498157158253342,0.17425694160244187,-1.4224410514722452,-0.5706370335154644,0.41228179421066774,0.15679354267152756,-0.7269096963373618,0.819685739113983,0.16785288984048574,-0.39103889630809513,0.42613477886133244,-0.28139969600249903,0.4600356044364184,0.5857658209829294,1.4022345046032019,0.9587265633203859,0.3571291741953519,-0.964498251910123,0.05066030320628829,-0.8765508806416844,-0.3082545341992591,1.1298154080772287,-0.09276354775332411,0.2707229681994299,-0.8105430602563635,-0.642891206718729,-0.8544265279639202,1.1446196642799182,-0.31842477608484837,-0.463664639830184,0.41957713252299894,0.6803306584091041,-0.00009562971184304665,0.14874208907385342,0.5027614106612467,-0.024092702688572814,-0.6440032152275055,0.39115359359189456,0.44051267142331535,-0.3050379256272637,0.17432525036174767,0.8141654521380759,0.2587157612313305,-0.5781692600815536,0.14458925858681212,-0.6041052548944861,0.10066394355239508,0.08411419176957378,-1.888860242486317,0.46701740538205266,0.4860860933943543,0.2066545911201649,-0.024800271691525825,0.7500824875913349,-0.46820203477711686,-0.8613432317793207,-0.5278997215917618,-0.06884924948402568,0.18825096519193488,-0.04080480794715482,0.3417326000348879,1.11635841769059,0.09743827959751188,0.0016230939097158868,0.11658861545620773,-0.2650520154319089,0.4874782068688033,-0.3176306000100726,-0.02861639586752076,0.7444451803906251,0.24596067081425882,-0.23145100478789768,-0.03628200584621187,-1.0992700253098393,0.5674231701674085,0.08475224426431885,-0.6194740595526645,0.4551176199201203,-0.8107231057798702,-0.8398443945377563,0.9209240870491403,-0.5257304400240626,-0.24120244453828493,-0.7025091376062261,0.6305847457670661,-0.5546452570793057,-0.4911304625696124,-0.03976642303695683,-0.7115015645630804,-0.4292358751439317,0.3168486016552833,-0.5399548842702893,-0.5791911762885369,0.32894252251198697,-0.05775740152415068,0.4080067497824994,0.16812954330998078,0.44421577280351465,0.8520075350165867,0.9551049859928371,1.0558945223399874,-0.12848615299177824,-0.8003960524975571,-0.43563281401202664,0.3492311688398285,0.1701694695797471,0.9140583334828112,0.2519690896364682,-0.9644630748790508,0.025238354961520257,0.33536309907006967,-0.8786317342137482,-0.30335006462569625,0.26098493722983956,0.9261812138494998,-0.657410045953274,0.27173928899607475,0.13390376555948308,-0.8807710844869335,-0.5442233398158207,0.13614950266079007,-0.1307539723923486,0.2398194943346116,-0.4272002277697619,0.4170209740149087,0.6495104674620439,0.5023138525237197,0.25251530434481456,0.2691026190831351,-0.524356909840416,-0.8626681198193065,-0.6351232616179671,0.39534048628310814,-0.6871597487605414,-0.30493628475577944,0.2851232407190776,0.6352675286080915,0.5394268289081621,-0.2232921718487171,-0.32091240395889836,0.47015692035722106,-0.5599272020696124,-0.13956519477532256,0.30935424264373196,-0.27499276614267276,-0.7132959151797166,-0.6682218191777782,-0.5725087919843072,-0.41833701212071694,0.21954870391911543,0.16501522589876855,-0.2472069282859108,0.19752614288528628,-0.16132427886913206,-0.3812225644394459,0.15363811652290169,-0.03319082198688106,-0.06840262389803112,-0.050516647275309086,0.32313947818542416,-1.0598300269520142,1.0399975978649592,0.34146942332783115,0.9301627042688347,1.6780738422095784,0.5162254825092872,0.2752484590519041,0.37513761039065924,-0.3426868692854523,-0.09514895444931909,1.0922810216554653,0.49801636814568906,-0.18901145211860576,0.26017784820252954,-0.3393503272843658,-0.2910283058498027,0.3980233220920118,-0.3696087446792145,0.4820138558254821,0.011044565179462285,-0.2538231470925472,-0.0636192042509263,0.44149330517875374,-0.3118495102267077,-0.05940144715115815,-0.020227840900562823,-0.14244850962447253,0.1589240993283964,0.599092277548577,0.48688908925968066,1.2738385672851271,0.9789360249045838,0.4306824808908715,-0.5567236259940762,0.4625462718917345,-0.5377543458554089,-0.31097922392524585,0.2685291119872289,-0.18444331490061724,-0.2940098885098563,-0.2681624530679773,0.03409682195583692,-0.0019103283273533894,-0.3910711867094822,-0.21930821661792108,0.3369263166603713,0.11009903852794174,0.30533838818746883,-0.03509637548715189,0.17517549472445523,-0.3558069031428194,-0.04337630712792936,0.20556550833906348,-0.5417872268644389,0.05065200888704473,-0.42209016112409214,0.33176781615019146,0.047497805116419274,0.8575603796060717,0.5328175033837865,-0.8926742347418938,-0.3562691175474063,0.05473770872595092,0.04479960364651657,0.16301535718602467,-0.010856936721678206,-0.5900788435631755,0.054331370026848104,0.007045616214472129,-0.14137990938393816,-0.2036058186123658,-0.1461314595171748,0.44665277140323717,-0.23905977645672372,0.15395789245260827,0.2995374202243186,-0.09761268720972172,-0.5120937567089073,0.2009007225591817,-0.09028834310361113,0.33087810279084495,0.23291284289254696,0.17149714741592617,-0.22663226576321369,0.17083960213721355,-0.3533927018440244,-0.6454357614510975,-0.9156023488231095,-0.18456118039401226,-0.30841672772475043,0.0321426388247219,-0.46385430239414616,0.5141806513154974,0.5525512442128852,0.0843288071259083,-0.2710096266298441,-0.31097999931345965,-0.25685771795480244,0.38081627791266937,-0.28671669262865895,-0.07704132841505869,-0.3342620742332186,-0.38267115996532475,0.058359280804780145,0.17573321747368376,-0.23923648897786248,0.2787781390897837,-0.2510400132929229,-0.10846673506528276,-0.14676110735417006,-0.005033568428740112,0.29632950544692244,-0.2750639825403248,-0.49852641081459037,-0.3223385238859155,0.08433164631325027,0.12356007053641911,0.2328246845839515,-0.03791317953012782,0.3517592800300578,-0.5242798569986742,-0.07212161280262176,-0.29070958365549643,0.2103817289769104,-0.06821492513858797,-0.08236777077801832,0.26733990449847045,-0.279221629127488,-0.35613979995891365,-0.06830372199189289,-0.29327739898091565,0.3523696851378365,-0.3995403550036733,-0.08775406718994094,0.08441757169730357,0.49893165063470934,-0.32956583503998516,0.13325194013175867,0.3125357091110446,0.32960747389991907,-0.010048787734097417,-0.2965338208981056,0.4732049303529865,-0.41298300078715616,0.08254939668705016,0.06481419154374961,0.3265261523929751,-0.1691171223436157,0.17950302734160134,0.18272181229158446,0.18723878390747087,-0.3807135458495312,-0.2856517229900754,0.4910761253376258,0.47143935814078464,0.120949742629329,0.40010547277844644,-0.14103292563569775,0.2742587695541089,-0.5779410138525604],[0.4559198228883572,-0.05194456899599037,0.4963829234276156,0.4929446483348149,0.17142039476603743,0.4676742966481676,-0.444873065087377,0.07944199650397035,-0.03872589377780611,0.032852650765589186,0.3672899375117338,-0.3632257109243719,-0.26410780502515346,-0.2560055065567864,-0.48362370188617365,0.24507014681265943,0.031403138606038945,-0.24762519905680103,0.04744415287791152,-0.3948054120978926,-0.280295495508913,-0.2964245261534572,0.20496043047630397,-0.28528351290718623,0.363714507228423,0.2590296673175324,-0.25451708568445247,-0.3070441991042635,-0.16325173272665966,-0.10554347659352342,-0.46319771224903833,0.25703934042910415,0.14187621202542305,-0.016974662698941434,-0.293494825342097,-0.06607468505153749,0.6318808774494493,-0.264281621989182,-0.015719772252754855,0.5307123292420212,0.05260295470616545,-0.2255371509553436,0.3463459413841374,-0.10994381091962788,0.4380680628682346,-0.3007599366997138,-0.11456901043005091,0.19354087584544838,0.07853537641213326,0.2480880904564007,-0.027707016608851602,0.3431950714276514,0.37745971430094527,-0.17815683114722747,-0.42970486923256257,-0.40328404120259315,-0.38931199531281613,0.4209555698461136,-0.4574734044079349,-0.03751314099553071,-0.11654863445917285,-0.019635307014802407,0.31166736028281167,0.10040686860226168,0.2736724518988867,0.13602574382864957,0.060308501858936624,0.6991677228116668,-0.09052245149745294,-0.07976660284720498,0.461013404842043,0.3099745176689425,-0.38480505252679426,-0.1474045267997283,0.12281865820645434,-0.17568157847512975,-0.49401557195541873,0.10391833571926208,-0.5536703940852177,0.23658726139708278,0.19473142760190432,-0.30498343017410795,0.37480679280042517,0.086799809789455,0.2692026520590214,0.4744527692005863,-0.007191555528684657,0.26117395585542913,0.013520321154983753,-0.4695120757097146,0.3722431572181009,0.25735460993279574,0.6111146623979379,0.34808954696812466,-0.3192181254554018,0.5468964090316741,-0.1911133135056633,0.4503453526201905,0.6658607218702437,-0.1741907552833994,-0.44349874578594034,-0.41312089684032777,0.09373210928929698,-0.34099335984361806,0.14322797513093627,-0.5682276217866058,-0.30272895668560085,-0.8285925262755962,-0.024863385803956178,0.3899518147760973,-0.055392389848688196,-0.37096755996431763,-0.06963029939615001,0.4262953050895895,0.05989507733085479,-0.2876089084455356,0.23005877311412182,0.05730411284579865,0.8722862320866743,0.534879614202893,0.07821219294615872,-0.011651066660706564,-0.10647934896942918,0.272704913202796,0.14018275524697887,-0.06544600686804923,0.1392909513347418,-0.6027612021296884,-0.3007468768363888,0.49990719375099857,-0.17674097017459206,0.4211369834169836,0.25337517490671,-0.14517753650371165,-0.7959946439406771,-0.3036947258161323,-0.0714524435678955,-0.41735948341984325,-0.2765525141483809,-0.1787682265691539,0.4746545480284342,-0.10879234534090251,-0.03871594640864425,-0.24919335888267724,-0.35422224786791606,0.2061974237300206,0.396833918505261,0.18164642376140439,-0.4027832867786656,0.27642472818341896,0.07079472329269898,0.40450287461346224,-0.39193532762095995,-0.06542496252018645,-1.4172466123420429,-0.55062174275163,-0.5448718723175006,0.059306598702779934,-1.4263160497080487,-0.3631771420946936,-0.13695128854582217,-0.4486411404250805,-0.636203176341289,-1.4587683734225827,0.4007697603223767,-0.06924972069734027,-0.43137802637796835,-0.2538472451650255,-0.20513316113264674,0.2966703394745477,0.13718145469395032,0.19166119963096032,-0.07060079053632333,0.44969080125947514,0.23534878486182384,0.5360574651198372,-0.8617181630504049,-0.6620196093790494,0.3187830776803325,0.03526137775183296,-0.10012834290717268,-0.25790334527376746,0.30276743648327065,1.4602090812403887,0.7727347356196358,0.6811612677710313,-0.5480721893378021,-0.5770966778147324,-0.8038143385962376,-1.1040241525089094,-1.0897146525782084,-0.5319158203655694,0.11473702652940587,-0.047135343873192376,-0.03567946899056343,-0.058467290670776884,-0.38154536642293135,0.31100807369897837,0.38383789115205347,0.22326944964520892,0.11140573445752411,-0.2648235360030991,0.4152154327578726,-0.057973893719568514,-0.7036620026894774,-0.2942243693480087,-0.2768749999415534,0.022950343340404446,0.5866356142380541,0.3993184486664258,-0.4794307182167625,-0.5851372649355261,0.7548176586170771,-0.36893238574999393,-0.4097364922486853,-0.8233857695458862,-0.9980178904031581,-2.007766920391331,-1.133589552282682,-0.23868572484063916,-0.8128783891885801,-0.36852029969668326,0.6516252573514254,0.01811984198829779,0.34670509397966376,-0.08266236724368525,0.476731024758195,0.34497270596016205,-0.15776720687771437,1.2327954896242572,0.5229662346157715,-0.9974678553583187,1.2672579792292507,0.2260523309882107,0.03564415535307852,0.20556167052782232,0.38550194667198,-0.8135746161145955,0.7814641819040524,0.3953278666766816,0.3714833152156921,-0.9030162372002396,-0.8294282554468739,-1.134091607605301,-1.2388024081261098,-1.8900760922666815,-0.05015280405804229,0.09486508615140958,-0.20965960255147228,0.17707153090844482,1.0951311797259242,-0.18798264960446562,0.011111183845672112,0.03331159558845933,0.1930561806897325,0.013299946495333542,0.27319750451093916,0.9904716513490562,-0.5189204115625944,0.3904489409003087,-0.15206252153490302,-0.20244826415342196,0.8882975436380335,1.1247877948143858,0.023064429655146726,-0.5857004038217529,-0.00614898546058755,0.22744161736422613,0.5630442243928137,0.3095786347218183,-0.6648809731183034,-0.2503743195055752,-1.301941676302135,-1.2788340293240894,-0.764207097968981,0.14448585253250357,-0.2091027232109583,-1.2383001225736385,1.2132765680333204,-0.3101220242901612,0.3045425743972353,-0.4241817830501203,0.1951410821801058,0.13718678590738967,-0.35024776975834526,-0.4505336857384925,-0.2138669143118652,-0.16757053392875496,-0.08167293657708229,0.6204506792717742,-0.4584043264396517,0.14411352225117813,0.7871160816705817,1.0703185188914792,0.5917631108827058,0.04093557759777362,0.5421777982989748,-0.2920729790968154,-0.6039293765178271,-1.368093278664069,-0.2584149514367366,-0.8009235855253817,-0.4472804932383336,0.020208145586791938,-0.08096893240132214,-0.3182607253259608,0.9191351506684168,0.5786127932673254,-0.4796879960124799,-0.01225600986268634,0.5954331302989997,-0.05399914720235,-1.2382526866652308,-0.4212805547999783,-0.05714512070025699,-0.7440199869022044,-0.478045062991794,0.9032533970999687,-0.6628911163610468,0.6542738754703918,-0.03650574683608501,0.5050711948157047,0.17568967052589282,-0.6080130397549732,0.040676269548073345,0.018839213639630807,0.6908685679163645,-0.5449876056770502,0.9072678069623905,-0.4967625086731542,-0.8287622274859935,-0.6525944763661262,0.551065983112078,0.17437951097020093,0.40955777181598535,0.09129849777262829,0.17229763501393103,0.19828162082522602,0.6884162890261473,0.24176781262154268,-1.1100526244371125,-0.9535013588152453,0.2970233205199847,0.5967858401691833,-0.8601564638649182,-0.8054169643854504,-1.1577367753207497,0.393823455603081,-1.9764871825423143,-0.41604438034097385,-0.39820961581523623,-0.6618543056531444,0.16136369736260361,-0.9146631733206858,-0.43034485811699535,0.6483014212142248,0.6659939016883485,0.25328722581114904,-0.14147457663008356,-0.8788490317756437,-0.06597441787709496,0.36645746499227577,0.6375768826618021,-0.29040560686283357,-0.3565403541295927,-0.08539046043274642,0.12471358479095655,0.2808736177079261,-1.5320156995535148,0.8677249919580085,0.013597884186545268,0.6255454955446865,-0.3069371870778241,-0.5882970670857539,0.17193784540806262,-0.07265296551634054,-0.10052711995330814,-0.9877059741290386,0.026203049626119326,-0.4163378419801571,0.40421737773694916,-0.3612839667727699,0.21992331203159501,-1.1395048087219863,-0.27021797364420197,1.2285886416472447,-1.3814160732591754,-1.237569381066267,0.5605039866315389,-0.4238153499405282,0.432915924072741,0.23689419088230304,-0.15065834919746854,-0.11984711853915071,0.24355844296667686,1.9300108920889922,0.028049796589696786,0.5605914618862077,-0.4504093757992434,-0.20358588566448146,1.239159783486936,0.9416861014630152,0.6492907806547956,0.3952817646228968,-0.6263344771558985,0.37064495489802946,0.22847966914422202,-0.31867099755058714,-0.7796816317985082,1.041226442232265,-0.49600330540529897,-0.6491989799573398,0.9143476472275026,0.044445599235629116,-0.09048482346815397,-0.05534991674297295,-0.0925162962708021,1.0023998618111047,1.0198870148135515,0.21167095157309743,-0.1159636939279303,0.5560024905881964,0.45076262896143615,0.8280817873417786,-0.6360688005279657,-0.7919250502525483,0.7914689508095809,1.5467192246359796,-0.2848828005293839,-0.09839506657398811,0.42366263072611576,0.381071110255304,0.4588843891545891,1.2343254503621477,0.5514051314535116,0.35548313662804853,0.8018568456247216,1.4482737532437937,-0.09937023561635319,-0.38600222639341497,0.49689007233855176,-1.1421223734104642,-1.1292796415905666,-0.928353641753022,1.3605862152449453,0.30625275581702105,1.0057958329328758,0.3103161259105969,0.4266812629608465,0.29891992615361523,0.3228425533829738,-0.13267626356935516,-0.3539170279154221,0.8259418927859188,-0.8442724921052828,-0.09422458687268317,0.0747867771563384,-0.7854346753874887,0.48790026484134574,1.5033920701126573,-0.6076857950995124,0.662841447266784,0.12378136902849599,-0.6015782454237262,0.12060468910189603,1.0737847576052268,-0.3443659960944149,-1.7945252534026808,-0.6076718306188248,0.46970269979024687,-1.1479200594650374,-0.570371893895163,-0.6389683340315093,0.6059306209494709,0.5379738593197763,0.5755257229518548,-0.4043426912870555,0.09792876045004655,0.5622586445154059,1.2047640969602975,0.4128007400774315,0.20955331317161782,0.6040513268738659,1.201101502106022,-0.5315390042133268,0.7191040090600767,-0.2674575204329108,-0.4670490958153027,0.6519225221702765,0.6318288709115066,-0.7545738518731604,0.614724746505754,0.25374970233704086,0.45800193821705754,-0.30512148045811666,0.2039791567091605,-0.7233776913344769,-0.8600699527933924,-0.9678617178141502,-1.1187805257996044,0.1608720586297819,1.8745379725372826,0.23986216615492087,0.44844915125871326,0.4267401867181666,0.315894590592298,0.019151361836801502,1.160774915260102,1.0974021469346062,0.13809498994035618,0.48839736756174634,0.03595279402553454,0.19341872674132266,-0.009751809676992153,0.3544941648368093,0.4936433705313537,0.23004823259439253,0.31088279402936747,0.16644919942895,1.1471965060953044,0.06590688209752871,0.7737401244201823,-0.9380005744564399,-0.2668906894227999,-0.4740138675485071,-0.9129888541590148,-0.7847937438180598,-0.5513451943091798,0.6222753937952514,1.6998666187080533,0.6024588514656296,0.40166542960843044,0.06912805250356568,0.1585935061398384,0.6530783368294689,1.6618085751830283,0.30469017079080585,-0.4308586224720084,-0.3102968853659318,0.5238509822905018,-0.6067856518484149,-0.28219254733527277,-0.6798590548703367,-0.05884508069847619,0.18698808936137906,1.2101120329465052,0.22561005992902244,0.19544435360515494,-0.6598100126275851,-0.45536048158301534,-0.4290756124517032,-0.03210589469537242,-1.418567768937217,-1.270016012079429,-1.084864592799316,-0.6197365143101515,-0.7473518136802298,0.5669904903548374,0.33026584165800243,0.256872093125914,0.45316803399599104,0.4058497427655823,0.15066021040171232,1.3206297821225805,-0.34450169652701995,-0.472135300686447,-0.30029834374291764,-0.05578076597661769,-0.2519537309524992,-0.3231720627513456,0.31862042793384493,1.3802882831469685,-0.05718636206087394,1.0522711061979937,1.1087627164952636,0.5010038952331358,1.2011196223137675,0.06866423106685161,0.41129136710591807,0.8934532018004269,-0.7554039850985702,-1.7676594524918015,-1.18198765266477,-1.1092482932011285,-0.40694582580258765,0.625702693592691,0.14339626292450097,-0.4484248210318304,-0.2785021256725375,-0.04220382164005112,0.03186107465379704,0.7480882842768919,-0.8397188505177167,-0.48385010843050447,0.7997127495189885,-0.5997509979091646,0.6408081959990956,0.27291099696441196,-0.7682308737818551,0.4922734609610916,0.7099009897398061,0.8350126159898184,1.3131276571493455,0.804322839201655,0.47966339521600376,0.6613637839643227,-0.13238105255644,-0.7111647529652527,-0.20029012002491262,-0.48744458444965294,-0.5141367796979822,-0.92096434759076,-0.04426509531067371,0.5031722997234843,0.7918151949559683,-0.35914550457295114,0.2621209472784968,-0.4665963508201721,0.24233252328737143,0.5865350145414641,-0.033383641309721594,-0.9560235229483396,-1.7115755722870307,-1.5614609036931453,-0.3722829840903343,0.5425955535420195,-0.33858428457273465,-0.2905311965238189,-0.19771983360350773,-0.032985590787622365,1.1367977654701986,1.0513230527560578,0.4165490877382302,0.31951529431783937,-1.6351676236335209,-1.9259603070787203,-0.871833532526483,-0.1331876803207904,-0.0509807240829747,-0.28400278821512015,-0.25215881426767095,-0.12749661162120415,0.1446934271193491,-0.12250378647074629,0.3376926783774964,0.1860326647097252,0.49114577655870945,-0.12289313564772773,0.49542204087085295,-0.8151471708932303,-1.6948465509489457,-1.185749236542551,-0.004152373905776097,-0.20649668456912162,0.2378855999998799,-0.5005832333790919,-0.29248112210003363,-0.6138586031963549,-0.208566303843274,0.3698585448576112,-0.1270065506582956,-0.02125257270831359,-1.5118316046231723,-0.8930891111386478,-0.7812083462360878,-0.6050828034117078,-0.005030056277376788,0.20686139373555926,-0.08918337421679055,-0.5622109265326004,-0.2545555202569412,0.030863000880873723,-0.07081505169508295,-0.08323711871729106,-0.3220657739684255,0.23516402024832259,-0.021675592640705406,-0.5742241276252155,-1.2149076665141807,-1.0622053256919282,-0.6936809912851643,-1.1107979421577878,-0.353324683911479,-1.565138319247606,-1.5452297567291835,-1.2684135149200777,-0.9580363040720553,-0.30663621833895016,-0.5698952791316699,-0.1985361844367012,-1.1510127728142936,-0.9220942291589388,-0.8191157932848948,-0.020551825470631224,-0.7890192109565584,0.1823657153930799,0.33672079577087555,0.16550402679456166,-0.2971890167628963,-0.10601668832281957,0.12663988046380292,0.19404921563198518,0.26457459131050326,0.12940761546267018,-0.3698485226185601,-0.4402475959060459,-0.012895383882614226,-0.7345228608740678,-0.9454545397460724,-0.19969040460967455,0.2644531176363173,-1.4986829445081744,-0.8696513913960895,-0.7999892902595005,-0.5572092210064626,-0.4545384903064464,-0.14522234625551314,0.3447590357455819,-0.03523610036535691,0.003387209828867332,-0.1876370819836161,-0.6915482984626268,-0.39509528099757446,0.2398318843817166,-0.23017544882406918,0.038155724904836846,-0.26914694172012715,0.1537971520799315,-0.33214406415614445,-0.44131101336916845,-0.2909186834289499,-0.17513237702641038,-0.05207680839390214,0.21116093558719495,-0.26864758545731315,0.042477820724782185,-0.24197742005732054,-0.3495715509999464,0.2606382789105808,-1.0737894552012008,0.10813147122801102,-0.8096314578196147,-0.4791049949364787,0.17344999698957225,-0.9953304753477971,0.26297543576414767,0.18787955341819737,-0.39093123278619374,0.18804533081421512,-0.002219629242103773,0.48486957802052294,-0.3027537045897045,0.014762798714841865,-0.3766433621732002,0.39575129994991565,-0.3900966221496097,0.01727821890628667,-0.21031922145310838,0.08252310829450726,0.30826892719357923,0.12105337418388154,-0.11345644383040018,0.35311913518345,-0.47303631211148983,0.18586483170951457,1.1072171358666454,0.1214970936614971,0.3488105598542209,-0.3552417777416842,-0.25547491600751926,-0.2688252841476574,0.39548343480024417,-0.1092884454803593,0.20591138444264856,0.4420701433596098,0.016139297623268167,-0.43096100541557775,-0.15594635868332068,-0.23247859581307254,-0.01948417317016754,-0.3636866288491927,0.03283151837723297,0.08863181319694413,0.06614390327262842,-1.3728187383492387],[-0.2192282599587601,-0.24093457601465507,0.48125487424686986,0.46258197539692136,0.009606469099695092,0.28909684489566545,0.3452555502669278,-0.267529183586186,0.31161146100714876,0.06786494509914297,0.36864325821606586,-0.2752818495350153,-0.3370035281607534,0.38551577040619783,0.0770131345661136,-0.34891392618042616,0.14096781560323718,0.3302702520008961,-0.46161135565913636,-0.0177806348019962,-0.31495769370143334,0.04694521482481589,-0.22115029969098446,-0.23332018163057355,0.36573011269738886,-0.4351195417107849,-0.491221508389414,-0.1914263522776362,-0.46260326072748037,0.0826403336887227,-0.47559463152017606,-0.22969123740842795,0.35624038968611715,-0.30837683412298067,0.0034056162000506824,0.4334228733603181,0.06942819615442963,-0.22595765866757075,-0.17145495384920512,0.23495217502232654,-0.23055175273097353,-0.012597437044322462,0.29663125176959293,0.3188790079455583,0.005568802538745204,0.48122042244361224,-0.20216387198802643,0.33956927103476436,-0.0321428966507383,0.14385796651537636,-0.24007328618325993,0.17172789757149187,0.16395108359138766,0.12954635434800488,0.2744697509046341,0.49168230066414575,-0.29097197327789737,-0.011658107386831318,-0.34449022087763725,-0.448399753113031,-0.12136313083746761,-0.009777404075252526,0.31211625849171726,0.48839655387011105,-0.2231819163376624,-0.11216412348623438,-0.2151922388851252,0.7337431034383946,0.07001751310014746,-0.00266291217914198,0.12712480149007924,0.29931990658491686,-0.1512619191238815,0.0781896428085864,0.0703657210965312,0.04807476963301606,0.12133900238172955,0.14485423608327008,0.017363087528310766,-0.21703179584653778,0.4618876346959513,-0.24619071522623442,-0.08829712222090275,-0.2741464633396974,-0.26600338215706165,0.3977661371671469,0.3855625094615078,0.4465802243260955,-0.12260835193232542,-0.13345447374131805,0.5192609114451605,0.23709833633752458,-0.41854487978861804,-0.4216183785312588,0.3637172225541532,0.5964438283037462,0.42180625555244405,0.373795305654273,0.28186481555775394,0.628243615240418,-0.3665186607995801,-0.7974118793317958,-0.69911749206659,-0.7344192913121084,-1.1198650048992176,-0.03601675631466829,-0.4906626084751443,-0.5394018603523545,-0.07491875364621942,-0.2560559586668019,0.03581704522850359,0.09866581795936102,-0.39852188181910164,-0.3679394141300308,-0.20183125132418644,0.21841130997038355,0.13281066860473875,0.3213145405086081,0.2434420065560475,-0.4205195832483285,-0.15978651496392815,-0.31794673342836066,-0.2037513631964769,-0.5419240237926958,-0.29884000331222094,0.38240081723595826,-0.1158015905684257,-0.26809652374311327,-0.2681125872033567,-0.17676639985435688,-0.43707565991182157,-0.07516893170373205,-1.2401337695810846,-1.3066959327380618,-0.2728759677416083,0.2563050004631336,0.6883052497852705,-0.07992378965627736,-0.39952549978433477,-0.4453384151993828,0.4323784564228321,0.39116709749250456,-0.28546922798292695,0.43704326176802416,-0.11814553053097486,0.6368934496588389,0.8464948554662199,0.5017395884111944,0.9259043798158233,0.6969955911546285,-0.441028753369366,0.33025419016905566,-0.13980402883487084,-0.2932158890618116,-0.12190139173813057,0.16121926417857366,-0.4029744958894391,-0.4492959082583201,-1.1094124562916292,-0.880608270849253,-0.48651985683051685,-0.9357400317829218,-0.5100268708197766,0.7426901814633188,1.89977196822653,0.5828458748864724,0.6315316422839039,0.09004211056972335,0.25535148667465324,-0.47272782877088265,0.367248799975276,-0.01516249056419636,-0.3720182987609363,0.042023251649292194,0.020240484939183418,0.7049590981471816,-0.7923438648637363,0.8675423512673504,1.0446224625713785,0.24914540398067733,-0.43080500490030327,-0.10491571371457774,-0.20429045914219507,0.44855204148902733,0.20534786779758452,0.8968378928931375,-0.8175489324706038,-0.588961102848522,0.5843826753301702,-1.796674174629205,-1.5913937433097392,-0.3737629845811042,0.3906568915721318,1.1959590172830192,0.026947940518132863,-0.04146788909242617,-0.1432634691343262,0.11190563709687226,-0.31261352012787624,0.3850913450867627,-0.12502669516454198,-0.31602551879378293,-0.3087100257882648,0.32046123648572605,-0.6278059716695058,0.04475134486026036,0.008149882528226082,0.2704086211842122,0.9305132236008088,0.6730844321808975,0.09051047996100517,-0.06371208253509668,-0.8512466517019665,0.4649475586324579,0.8846412116202699,-0.09829121027170412,-0.8786099290393896,-0.8716834221817054,0.13173171644967674,0.18132137388811456,1.3292534894654289,0.8892210613143154,-0.003025084797059902,-0.1164561319869592,0.17872256757561256,0.1556292588517142,0.1697247615590652,0.12023710360352055,-0.6807375230674322,0.2781317680903948,0.28914805125577914,0.44468016076629446,0.559343865086133,-0.6420191465728285,0.047913108839639965,0.2558328920428494,-0.4943555748602594,-0.7160594397813148,0.12356745822380015,0.03925785036976242,0.38999509739964555,-0.4032781111779415,-0.04441315653910524,-0.6188643674680457,-1.4278657833315425,0.2155540007251391,-0.493528191762643,-0.9887225619252298,0.370327192940445,1.343881729114399,0.3312244867999675,0.21124871440027138,0.3683629291242926,-0.15258254498366744,-0.098432242138737,-0.04806399913849453,-0.4797069641274499,-0.22156937517067643,-0.045786458437914984,0.7392340472555602,0.5620350054648122,0.48401238968783855,0.500508352070728,-0.18765836314255155,0.5466171534985269,0.5863811712178818,-0.4302054818214529,-1.7239240565042204,0.287687605992366,-0.5350239020403401,-0.31627972285581446,-1.6821218464324186,-0.2722008569677612,0.546621046282395,0.16455657370088772,-1.12737416373572,-0.3337310216902459,1.4810191863194007,0.47278722510364307,-0.27513939102547547,-0.0513657558819986,0.16251570149264347,-0.3490604620765964,0.055587743032562524,-0.6324822233822266,-1.8099154835248228,0.43398945933107297,1.2338465994100019,-0.885662445758888,-0.29853558560850973,1.1746587131953452,-1.0396449708789777,-0.38399647039799273,0.000005414065016737788,0.1997763497946033,0.015774724815263236,0.6482094766458055,0.9991240195150431,0.19123630815511125,0.04261067540014848,0.19628453604449853,-0.6859288915834397,0.1444849932969651,0.8759549574347781,-0.571138169075286,